{"learner":{"attributes":{"best_iteration":"170","best_score":"0.9339220581849761"},"feature_names":[],"feature_types":[],"gradient_booster":{"model":{"cats":{"enc":[],"feature_segments":[],"sorted_idx":[]},"gbtree_model_param":{"num_parallel_tree":"1","num_trees":"196"},"iteration_indptr":[0,1,2,3,4,5,6,7,8,9,10,11,12,13,14,15,16,17,18,19,20,21,22,23,24,25,26,27,28,29,30,31,32,33,34,35,36,37,38,39,40,41,42,43,44,45,46,47,48,49,50,51,52,53,54,55,56,57,58,59,60,61,62,63,64,65,66,67,68,69,70,71,72,73,74,75,76,77,78,79,80,81,82,83,84,85,86,87,88,89,90,91,92,93,94,95,96,97,98,99,100,101,102,103,104,105,106,107,108,109,110,111,112,113,114,115,116,117,118,119,120,121,122,123,124,125,126,127,128,129,130,131,132,133,134,135,136,137,138,139,140,141,142,143,144,145,146,147,148,149,150,151,152,153,154,155,156,157,158,159,160,161,162,163,164,165,166,167,168,169,170,171,172,173,174,175,176,177,178,179,180,181,182,183,184,185,186,187,188,189,190,191,192,193,194,195,196],"tree_info":[0,0,0,0,0,0,0,0,0,0,0,0,0,0,0,0,0,0,0,0,0,0,0,0,0,0,0,0,0,0,0,0,0,0,0,0,0,0,0,0,0,0,0,0,0,0,0,0,0,0,0,0,0,0,0,0,0,0,0,0,0,0,0,0,0,0,0,0,0,0,0,0,0,0,0,0,0,0,0,0,0,0,0,0,0,0,0,0,0,0,0,0,0,0,0,0,0,0,0,0,0,0,0,0,0,0,0,0,0,0,0,0,0,0,0,0,0,0,0,0,0,0,0,0,0,0,0,0,0,0,0,0,0,0,0,0,0,0,0,0,0,0,0,0,0,0,0,0,0,0,0,0,0,0,0,0,0,0,0,0,0,0,0,0,0,0,0,0,0,0,0,0,0,0,0,0,0,0,0,0,0,0,0,0,0,0,0,0,0,0,0,0,0,0,0,0],"trees":[{"base_weights":[4.185336E-3,1.2975686E0,-3.7534618E-1,1.5357476E0,8.02814E-1,-7.1542925E-1,5.2191466E-1,1.1939552E0,9.469938E-2,-5.550599E-3,1.3835756E0,-1.0548613E0,7.3727824E-2,7.027629E-1,-1.109151E0,1.4672507E0,-5.960781E-1,-1.2527425E0,4.804774E-1,1.0410178E0,1.7606266E0,-4.0632886E-1,-1.3541554E0,-3.6377463E-1,1.0368348E0,9.174062E-1,1.8682966E-1,-1.4864551E0,-4.795831E-1,7.894767E-2,4.6272647E-2,-1.1310453E-3,-8.7272726E-2,-2.8390495E-2,-7.663845E-2,3.8516726E-2,-5.371669E-2,6.692059E-2,-1.4486717E-2,9.2560336E-2,4.4310443E-2,-5.872157E-2,-2.9225007E-3,-5.407996E-2,-8.444572E-2,3.088814E-2,-5.058617E-2,6.516778E-2,-3.304717E-2,4.4365954E-2,6.141137E-2,-4.174779E-2,3.3737298E-2,-5.378058E-2,-9.275862E-2,5.7348716E-3,-8.444445E-2],"categories":[],"categories_nodes":[],"categories_segments":[],"categories_sizes":[],"default_left":[0,0,0,0,0,0,0,0,0,0,0,0,0,0,0,0,0,0,0,0,0,0,0,0,0,0,0,0,0,0,0,0,0,0,0,0,0,0,0,0,0,0,0,0,0,0,0,0,0,0,0,0,0,0,0,0,0],"id":0,"left_children":[1,3,5,7,9,11,13,15,-1,17,19,21,23,25,27,29,31,33,35,37,39,41,43,45,47,49,51,53,55,-1,-1,-1,-1,-1,-1,-1,-1,-1,-1,-1,-1,-1,-1,-1,-1,-1,-1,-1,-1,-1,-1,-1,-1,-1,-1,-1,-1],"loss_changes":[1.136914E3,6.0453552E1,5.467314E2,4.0710266E1,8.135812E1,3.480891E2,1.4604272E2,9.084714E1,0E0,4.5079117E1,1.0899033E1,1.7558722E2,1.653998E2,4.889827E1,1.0848442E1,7.9556885E0,1.626117E1,2.9233742E0,2.4850529E1,2.2406235E1,1.7585144E0,7.686098E1,5.455591E1,1.7229475E2,5.6408844E1,1.6278381E0,6.628983E1,2.31279E0,1.4813835E1,0E0,0E0,0E0,0E0,0E0,0E0,0E0,0E0,0E0,0E0,0E0,0E0,0E0,0E0,0E0,0E0,0E0,0E0,0E0,0E0,0E0,0E0,0E0,0E0,0E0,0E0,0E0,0E0],"parents":[2147483647,0,0,1,1,2,2,3,3,4,4,5,5,6,6,7,7,9,9,10,10,11,11,12,12,13,13,14,14,15,15,16,16,17,17,18,18,19,19,20,20,21,21,22,22,23,23,24,24,25,25,26,26,27,27,28,28],"right_children":[2,4,6,8,10,12,14,16,-1,18,20,22,24,26,28,30,32,34,36,38,40,42,44,46,48,50,52,54,56,-1,-1,-1,-1,-1,-1,-1,-1,-1,-1,-1,-1,-1,-1,-1,-1,-1,-1,-1,-1,-1,-1,-1,-1,-1,-1,-1,-1],"split_conditions":[7.14E0,2E0,4.7014E2,4.32E0,6E0,6E0,3.91E0,1.38E0,9.469938E-2,4.32E0,4.32E0,1E0,3.36844E1,1.01E0,4.16E1,5.98E1,2.02E0,6.1E-1,8.57E0,1.24E0,7.31E0,1.456E2,5E0,1.536E1,8.17E0,2.22E1,1E0,5.56E0,8.17E0,7.894767E-2,4.6272647E-2,-1.1310453E-3,-8.7272726E-2,-2.8390495E-2,-7.663845E-2,3.8516726E-2,-5.371669E-2,6.692059E-2,-1.4486717E-2,9.2560336E-2,4.4310443E-2,-5.872157E-2,-2.9225007E-3,-5.407996E-2,-8.444572E-2,3.088814E-2,-5.058617E-2,6.516778E-2,-3.304717E-2,4.4365954E-2,6.141137E-2,-4.174779E-2,3.3737298E-2,-5.378058E-2,-9.275862E-2,5.7348716E-3,-8.444445E-2],"split_indices":[1,7,1,1,7,7,6,6,0,1,1,7,3,6,5,5,6,6,6,6,6,5,7,1,6,5,0,6,6,0,0,0,0,0,0,0,0,0,0,0,0,0,0,0,0,0,0,0,0,0,0,0,0,0,0,0,0],"split_type":[0,0,0,0,0,0,0,0,0,0,0,0,0,0,0,0,0,0,0,0,0,0,0,0,0,0,0,0,0,0,0,0,0,0,0,0,0,0,0,0,0,0,0,0,0,0,0,0,0,0,0,0,0,0,0,0,0],"sum_hessian":[2.3138943E3,5.244606E2,1.7894337E3,3.5247156E2,1.71989E2,1.297837E3,4.9159674E2,1.8273666E2,1.697349E2,7.224672E1,9.974227E1,9.0735547E2,3.9048154E2,4.430977E2,4.8499043E1,1.5873743E2,2.3999249E1,1.9874693E1,5.2372025E1,5.4371204E1,4.5371067E1,2.8736456E2,6.199909E2,2.68865E2,1.21616554E2,3.1222922E2,1.3086847E2,2.9374693E1,1.912435E1,1.2986436E2,2.887305E1,1.6749249E1,7.25E0,6.749795E0,1.3124897E1,4.462216E1,7.749863E0,4.4496582E1,9.874624E0,3.9996445E1,5.374624E0,8.874836E1,1.9861621E2,3.4424283E2,2.7574808E2,1.0686861E2,1.6199638E2,1.05367035E2,1.6249521E1,2.88481E2,2.3748222E1,4.1998905E1,8.886957E1,1.5874692E1,1.35E1,1.3374351E1,5.75E0],"tree_param":{"num_deleted":"0","num_feature":"8","num_nodes":"57","size_leaf_vector":"1"}},{"base_weights":[-6.0160365E-3,-1.3107657E0,9.515383E-1,-1.5375334E0,-7.7186054E-1,-3.2414094E-1,1.2034866E0,-7.115605E-1,-1.6079559E0,-1.1078938E0,4.0056938E-1,-8.949304E-1,1.4057395E0,1.4621415E0,5.0700444E-1,-6.401103E-2,-8.148917E-2,-1.7294371E0,-1.4090784E0,-1.619892E0,-3.599435E-1,6.840963E-1,-5.85361E-2,-2.2716586E-1,-1.1100967E0,8.510773E-2,1.0115407E0,1.3569361E0,1.7118849E0,2.8304769E-2,1.0820551E0,-3.1824253E-2,5.0449383E-2,-9.1624714E-2,-7.139448E-2,-3.0331302E-2,-7.464652E-2,-4.0886432E-2,-8.526835E-2,-1.0951247E-2,-6.6328146E-2,5.5372067E-2,1.8761845E-2,3.109584E-3,-1.1627482E-2,-2.9113544E-2,5.0500233E-2,-4.8994724E-2,-7.7315204E-2,2.5981471E-2,6.701993E-2,6.1670925E-2,8.0402754E-2,9.231987E-2,7.140561E-2,1.2497387E-2,-4.723434E-2,3.611777E-2,8.8732444E-2],"categories":[],"categories_nodes":[],"categories_segments":[],"categories_sizes":[],"default_left":[0,0,0,0,0,0,0,0,0,0,0,0,0,0,0,0,0,0,0,0,0,0,0,0,0,0,0,0,0,0,0,0,0,0,0,0,0,0,0,0,0,0,0,0,0,0,0,0,0,0,0,0,0,0,0,0,0,0,0],"id":1,"left_children":[1,3,5,7,9,11,13,15,17,19,21,23,25,27,29,31,-1,33,35,37,39,41,43,45,47,-1,49,51,53,55,57,-1,-1,-1,-1,-1,-1,-1,-1,-1,-1,-1,-1,-1,-1,-1,-1,-1,-1,-1,-1,-1,-1,-1,-1,-1,-1,-1,-1],"loss_changes":[2.9154539E3,1.1929004E2,4.3301807E2,3.8995483E1,1.1660904E2,2.2107918E2,2.0156677E2,3.328057E1,1.2678467E1,8.7053406E1,8.734278E0,2.3764923E1,4.502487E0,1.8890137E1,8.410569E1,2.1611877E1,0E0,9.231689E0,1.5563629E1,7.6638794E0,1.2436721E1,4.8243084E0,5.798841E-1,1.914312E1,5.431198E0,0E0,3.3994465E0,1.5765869E1,6.145508E0,3.6426468E1,3.3074295E1,0E0,0E0,0E0,0E0,0E0,0E0,0E0,0E0,0E0,0E0,0E0,0E0,0E0,0E0,0E0,0E0,0E0,0E0,0E0,0E0,0E0,0E0,0E0,0E0,0E0,0E0,0E0,0E0],"parents":[2147483647,0,0,1,1,2,2,3,3,4,4,5,5,6,6,7,7,8,8,9,9,10,10,11,11,12,12,13,13,14,14,15,15,17,17,18,18,19,19,20,20,21,21,22,22,23,23,24,24,26,26,27,27,28,28,29,29,30,30],"right_children":[2,4,6,8,10,12,14,16,18,20,22,24,26,28,30,32,-1,34,36,38,40,42,44,46,48,-1,50,52,54,56,58,-1,-1,-1,-1,-1,-1,-1,-1,-1,-1,-1,-1,-1,-1,-1,-1,-1,-1,-1,-1,-1,-1,-1,-1,-1,-1,-1,-1],"split_conditions":[1E0,6E0,7.28777E1,7.14E0,3.36844E1,3.8054E2,1.774E2,2E0,3.36844E1,3.8054E2,4.422E2,1.52E1,1E0,9.17362E1,6E0,4.32E0,-8.148917E-2,3.8054E2,1E0,7.14E0,7E0,2.9474E2,5.313E2,6E0,1.278E2,8.510773E-2,6E0,6E0,2E0,5E0,1.4343E2,-3.1824253E-2,5.0449383E-2,-9.1624714E-2,-7.139448E-2,-3.0331302E-2,-7.464652E-2,-4.0886432E-2,-8.526835E-2,-1.0951247E-2,-6.6328146E-2,5.5372067E-2,1.8761845E-2,3.109584E-3,-1.1627482E-2,-2.9113544E-2,5.0500233E-2,-4.8994724E-2,-7.7315204E-2,2.5981471E-2,6.701993E-2,6.1670925E-2,8.0402754E-2,9.231987E-2,7.140561E-2,1.2497387E-2,-4.723434E-2,3.611777E-2,8.8732444E-2],"split_indices":[2,7,4,1,3,1,5,7,3,1,5,5,7,4,7,1,0,1,7,1,7,1,5,7,5,0,7,7,7,7,1,0,0,0,0,0,0,0,0,0,0,0,0,0,0,0,0,0,0,0,0,0,0,0,0,0,0,0,0],"split_type":[0,0,0,0,0,0,0,0,0,0,0,0,0,0,0,0,0,0,0,0,0,0,0,0,0,0,0,0,0,0,0,0,0,0,0,0,0,0,0,0,0,0,0,0,0,0,0,0,0,0,0,0,0,0,0,0,0,0,0],"sum_hessian":[2.3315146E3,9.867369E2,1.3447778E3,6.9306226E2,2.9367462E2,2.2167851E2,1.1230992E3,5.543219E1,6.3763007E2,2.2836319E2,6.531144E1,1.6708711E2,5.4591408E1,8.180531E2,3.0504617E2,3.319853E1,2.2233664E1,3.9074863E2,2.4688145E2,1.347931E2,9.357008E1,4.020812E1,2.5103323E1,4.1332623E1,1.25754486E2,2.9121798E1,2.546961E1,5.803936E2,2.3765952E2,1.6713672E2,1.3790945E2,2.197453E1,1.1223997E1,2.8718988E2,1.0355872E2,2.4248981E1,2.2263248E2,1.4110074E1,1.2068302E2,8.2825424E1,1.0744659E1,1.5733409E1,2.4474709E1,1.4860964E1,1.024236E1,3.2588833E1,8.74379E0,9.952362E1,2.6230867E1,1.1360526E1,1.4109084E1,3.9326746E2,1.8712613E2,1.5725798E2,8.040153E1,1.3681645E2,3.0320263E1,9.220829E1,4.570117E1],"tree_param":{"num_deleted":"0","num_feature":"8","num_nodes":"59","size_leaf_vector":"1"}},{"base_weights":[5.662226E-3,-1.2301991E0,9.075718E-1,-1.4528785E0,-7.236018E-1,-3.8277584E-1,1.1578606E0,-5.529181E-1,-1.5322484E0,-1.5023423E0,-2.837592E-1,-8.678615E-1,1.1976818E0,1.3922032E0,6.8016E-1,9.767254E-2,-7.744393E-2,-1.6455423E0,-1.3508197E0,-3.120195E-2,-8.100935E-2,-6.1834985E-1,3.8260567E-1,-1.0510619E0,-7.482219E-2,7.449176E-2,8.157898E-1,1.2720039E0,1.6323924E0,2.586123E-1,1.1815802E0,-2.6474813E-2,5.924749E-2,-8.7385125E-2,-6.669495E-2,-2.3680165E-2,-7.229231E-2,-5.8013078E-2,1.1244392E-3,3.3189617E-2,4.4610453E-4,-4.073122E-2,-8.150952E-2,4.102193E-3,-2.8047001E-2,6.881922E-3,6.554009E-2,5.8263518E-2,7.570539E-2,8.808193E-2,6.868325E-2,2.5217144E-2,-4.7829222E-2,4.8954036E-2,8.381525E-2],"categories":[],"categories_nodes":[],"categories_segments":[],"categories_sizes":[],"default_left":[0,0,0,0,0,0,0,0,0,0,0,0,0,0,0,0,0,0,0,0,0,0,0,0,0,0,0,0,0,0,0,0,0,0,0,0,0,0,0,0,0,0,0,0,0,0,0,0,0,0,0,0,0,0,0],"id":2,"left_children":[1,3,5,7,9,11,13,15,17,19,21,23,25,27,29,31,-1,33,35,-1,-1,37,39,41,43,-1,45,47,49,51,53,-1,-1,-1,-1,-1,-1,-1,-1,-1,-1,-1,-1,-1,-1,-1,-1,-1,-1,-1,-1,-1,-1,-1,-1],"loss_changes":[2.5762932E3,1.0873096E2,4.3207837E2,4.7247437E1,1.0210741E2,1.6796352E2,1.2416736E2,3.6888084E1,1.0237183E1,9.934784E0,4.327969E1,2.4108818E1,4.3016205E0,1.928479E1,7.7870865E1,2.4585943E1,0E0,9.369934E0,1.9508575E1,0E0,0E0,4.491548E1,6.7582197E0,1.7007416E1,2.577285E0,0E0,7.961956E0,1.1007751E1,5.503479E0,6.0961983E1,1.5008408E1,0E0,0E0,0E0,0E0,0E0,0E0,0E0,0E0,0E0,0E0,0E0,0E0,0E0,0E0,0E0,0E0,0E0,0E0,0E0,0E0,0E0,0E0,0E0,0E0],"parents":[2147483647,0,0,1,1,2,2,3,3,4,4,5,5,6,6,7,7,8,8,9,9,10,10,11,11,12,12,13,13,14,14,15,15,17,17,18,18,21,21,22,22,23,23,24,24,26,26,27,27,28,28,29,29,30,30],"right_children":[2,4,6,8,10,12,14,16,18,20,22,24,26,28,30,32,-1,34,36,-1,-1,38,40,42,44,-1,46,48,50,52,54,-1,-1,-1,-1,-1,-1,-1,-1,-1,-1,-1,-1,-1,-1,-1,-1,-1,-1,-1,-1,-1,-1,-1,-1],"split_conditions":[1E0,6E0,7.28777E1,7.14E0,2.7157E2,3.8054E2,2.86139E1,2E0,3.36844E1,7.14E0,3.15204E1,6E0,1E0,2.61445E1,6E0,4.32E0,-7.744393E-2,3.8054E2,1E0,-3.120195E-2,-8.100935E-2,1E0,2.9474E2,3E0,2.7157E2,7.449176E-2,6E0,6E0,2E0,5E0,1.4343E2,-2.6474813E-2,5.924749E-2,-8.7385125E-2,-6.669495E-2,-2.3680165E-2,-7.229231E-2,-5.8013078E-2,1.1244392E-3,3.3189617E-2,4.4610453E-4,-4.073122E-2,-8.150952E-2,4.102193E-3,-2.8047001E-2,6.881922E-3,6.554009E-2,5.8263518E-2,7.570539E-2,8.808193E-2,6.868325E-2,2.5217144E-2,-4.7829222E-2,4.8954036E-2,8.381525E-2],"split_indices":[2,7,4,1,1,1,3,7,3,1,3,7,7,3,7,1,0,1,7,0,0,0,1,7,1,0,7,7,7,7,1,0,0,0,0,0,0,0,0,0,0,0,0,0,0,0,0,0,0,0,0,0,0,0,0],"split_type":[0,0,0,0,0,0,0,0,0,0,0,0,0,0,0,0,0,0,0,0,0,0,0,0,0,0,0,0,0,0,0,0,0,0,0,0,0,0,0,0,0,0,0,0,0,0,0,0,0,0,0,0,0,0,0],"sum_hessian":[2.3093604E3,9.741015E2,1.3352588E3,6.7523193E2,2.988696E2,2.1677274E2,1.1184861E3,5.5471912E1,6.1976E2,1.06921776E2,1.9194781E2,1.6625781E2,5.051492E1,7.4895325E2,3.6953284E2,3.4038494E1,2.1433418E1,3.7621176E2,2.4354823E2,1.3494016E1,9.3427765E1,1.2793305E2,6.4014755E1,1.3469127E2,3.156654E1,2.6828018E1,2.36869E1,5.036305E2,2.4532275E2,2.0168768E2,1.6784517E2,2.1853743E1,1.2184752E1,2.796202E2,9.6591576E1,2.4491983E1,2.1905624E2,6.896216E1,5.8970894E1,3.593255E1,2.8082209E1,9.747503E1,3.7216244E1,2.4338295E1,7.228244E0,1.0619107E1,1.3067793E1,3.5385617E2,1.497743E2,1.5946649E2,8.585627E1,1.6831848E2,3.3369194E1,1.2135403E2,4.6491142E1],"tree_param":{"num_deleted":"0","num_feature":"8","num_nodes":"55","size_leaf_vector":"1"}},{"base_weights":[5.128306E-3,-4.732126E-1,9.506156E-1,-1.0832158E0,-5.7951845E-2,7.06601E-1,1.4142206E0,-1.3599659E0,-5.713218E-1,-4.4225803E-1,5.2977127E-1,9.5237345E-1,-7.338743E-1,1.5105232E0,6.547775E-2,-9.851229E-1,-1.5520686E0,-1.4413768E-1,-1.5787084E0,2.1329302E-1,-1.1214484E0,1.513045E-1,9.123608E-1,1.1487503E0,7.63699E-1,-3.1976587E-1,-8.8481516E-2,8.305586E-2,1.1956228E0,6.835911E-2,-6.652847E-1,-2.909571E-2,-5.7923086E-2,-6.7344084E-2,-8.3574645E-2,3.9394636E-2,-2.7169019E-2,-5.0691582E-2,-8.602743E-2,3.271475E-2,-2.9855067E-2,-7.5515546E-2,-3.9145853E-2,3.281402E-2,-5.133784E-2,5.2307613E-2,-2.4993107E-2,6.821085E-2,2.9697824E-2,4.1334894E-2,-1.7576249E-3,-6.1182376E-2,-1.2707927E-3,3.5714056E-2,8.442937E-2,-5.5700302E-2,-0E0],"categories":[],"categories_nodes":[],"categories_segments":[],"categories_sizes":[],"default_left":[0,0,0,0,0,0,0,0,0,0,0,0,0,0,0,0,0,0,0,0,0,0,0,0,0,0,0,0,0,0,0,0,0,0,0,0,0,0,0,0,0,0,0,0,0,0,0,0,0,0,0,0,0,0,0,0,0],"id":3,"left_children":[1,3,5,7,9,11,13,15,17,19,21,23,25,27,29,31,33,35,37,39,41,43,45,47,49,51,-1,-1,53,-1,55,-1,-1,-1,-1,-1,-1,-1,-1,-1,-1,-1,-1,-1,-1,-1,-1,-1,-1,-1,-1,-1,-1,-1,-1,-1,-1],"loss_changes":[1.0412765E3,3.870684E2,8.6293945E1,8.6725586E1,2.059237E2,1.8089328E2,3.4241577E1,2.7088867E1,9.387887E1,2.4579095E2,5.194274E1,1.5057648E1,3.1257072E1,9.47876E0,1.8877205E1,8.850723E0,3.895874E0,5.808491E1,3.1955414E0,1.00927124E2,3.4263306E1,1.0921294E2,3.4379715E1,2.4219482E1,1.1442581E1,1.4381459E1,0E0,0E0,1.8472435E1,0E0,3.8003259E0,0E0,0E0,0E0,0E0,0E0,0E0,0E0,0E0,0E0,0E0,0E0,0E0,0E0,0E0,0E0,0E0,0E0,0E0,0E0,0E0,0E0,0E0,0E0,0E0,0E0,0E0],"parents":[2147483647,0,0,1,1,2,2,3,3,4,4,5,5,6,6,7,7,8,8,9,9,10,10,11,11,12,12,13,13,14,14,15,15,16,16,17,17,18,18,19,19,20,20,21,21,22,22,23,23,24,24,25,25,28,28,30,30],"right_children":[2,4,6,8,10,12,14,16,18,20,22,24,26,28,30,32,34,36,38,40,42,44,46,48,50,52,-1,-1,54,-1,56,-1,-1,-1,-1,-1,-1,-1,-1,-1,-1,-1,-1,-1,-1,-1,-1,-1,-1,-1,-1,-1,-1,-1,-1,-1,-1],"split_conditions":[8.51376E1,7.28777E1,9.17362E1,3.8054E2,6E0,1.29E0,8.57E0,6.4E-1,6.78E0,3E0,1.4343E2,4.32E0,2.02E0,2E0,2E0,1.33E1,1.22E0,1E0,7.76E0,2.081E2,2.685E2,1.4E0,8.17E0,2E0,1.03E0,2.53E1,-8.8481516E-2,8.305586E-2,5E0,6.835911E-2,1.061E2,-2.909571E-2,-5.7923086E-2,-6.7344084E-2,-8.3574645E-2,3.9394636E-2,-2.7169019E-2,-5.0691582E-2,-8.602743E-2,3.271475E-2,-2.9855067E-2,-7.5515546E-2,-3.9145853E-2,3.281402E-2,-5.133784E-2,5.2307613E-2,-2.4993107E-2,6.821085E-2,2.9697824E-2,4.1334894E-2,-1.7576249E-3,-6.1182376E-2,-1.2707927E-3,3.5714056E-2,8.442937E-2,-5.5700302E-2,-0E0],"split_indices":[4,4,4,1,7,6,6,6,6,7,1,1,6,7,7,5,6,7,6,5,5,6,6,7,6,5,0,0,7,0,5,0,0,0,0,0,0,0,0,0,0,0,0,0,0,0,0,0,0,0,0,0,0,0,0,0,0],"split_type":[0,0,0,0,0,0,0,0,0,0,0,0,0,0,0,0,0,0,0,0,0,0,0,0,0,0,0,0,0,0,0,0,0,0,0,0,0,0,0,0,0,0,0,0,0,0,0,0,0,0,0,0,0,0,0,0,0],"sum_hessian":[2.3002578E3,1.5277383E3,7.725196E2,6.1802795E2,9.097104E2,5.0792007E2,2.6459952E2,3.9994812E2,2.1807983E2,5.502954E2,3.5941495E2,4.3423895E2,7.368112E1,2.4678459E2,1.781493E1,1.3777042E2,2.621777E2,1.5401279E2,6.406705E1,2.8029492E2,2.700005E2,1.8151389E2,1.7790106E2,2.1002318E2,2.2421577E2,5.3640312E1,2.0040806E1,1.6383945E2,8.294513E1,6.141336E0,1.16735935E1,4.2904015E1,9.486641E1,1.0128018E2,1.6089752E2,4.582067E1,1.08192116E2,1.463521E1,4.9431835E1,1.8172142E2,9.8573494E1,1.2391065E2,1.4608984E2,1.2742218E2,5.409171E1,1.6280704E2,1.509402E1,1.5009227E2,5.993091E1,2.0790994E2,1.6305828E1,1.2317927E1,4.1322384E1,4.3309032E1,3.96361E1,6.582299E0,5.0912943E0],"tree_param":{"num_deleted":"0","num_feature":"8","num_nodes":"57","size_leaf_vector":"1"}},{"base_weights":[-2.1023925E-2,-1.1867367E0,8.244266E-1,-1.4325602E0,-1.010189E0,-3.0158442E-1,1.0487127E0,-8.299694E-2,-1.1055024E0,-1.3109046E0,-8.013789E-1,-7.613854E-1,1.1420459E0,1.2853683E0,5.667851E-1,-7.679521E-1,-8.179629E-2,-1.4353033E0,-2.838856E-1,-6.3024336E-1,-7.69333E-2,-2.8921413E-1,-1.3177077E0,6.491029E-2,-1.2417179E-2,1.1720141E0,1.52225E0,8.9139175E-1,8.196368E-2,-3.0395204E-2,-4.4803027E-2,-5.5486914E-2,-8.5556746E-2,9.4512245E-4,-6.561524E-2,-1.200316E-2,-4.0304955E-2,-7.2786654E-3,-2.312674E-2,-5.1935982E-2,-7.868755E-2,6.7397974E-2,3.1017458E-2,7.737153E-2,2.8486732E-2,6.008316E-2,2.4987634E-2,-3.370333E-2,5.4738242E-2],"categories":[],"categories_nodes":[],"categories_segments":[],"categories_sizes":[],"default_left":[0,0,0,0,0,0,0,0,0,0,0,0,0,0,0,0,0,0,0,0,0,0,0,0,0,0,0,0,0,0,0,0,0,0,0,0,0,0,0,0,0,0,0,0,0,0,0,0,0],"id":4,"left_children":[1,3,5,7,9,11,13,-1,15,17,19,21,23,25,27,29,-1,31,33,35,-1,37,39,-1,-1,41,43,45,47,-1,-1,-1,-1,-1,-1,-1,-1,-1,-1,-1,-1,-1,-1,-1,-1,-1,-1,-1,-1],"loss_changes":[2.2662295E3,4.0261475E1,3.369762E2,2.774115E1,3.429364E1,1.4824086E2,1.2587427E2,0E0,2.8547699E1,2.884134E1,4.1328995E1,4.3872543E1,1.2150482E1,1.794104E1,5.7751022E1,1.4484406E0,0E0,1.6234436E1,8.316675E0,1.859037E1,0E0,2.1831079E0,3.6219482E0,0E0,0E0,4.830072E1,4.5999756E0,2.5989456E1,1.1473455E2,0E0,0E0,0E0,0E0,0E0,0E0,0E0,0E0,0E0,0E0,0E0,0E0,0E0,0E0,0E0,0E0,0E0,0E0,0E0,0E0],"parents":[2147483647,0,0,1,1,2,2,3,3,4,4,5,5,6,6,8,8,9,9,10,10,11,11,12,12,13,13,14,14,15,15,17,17,18,18,19,19,21,21,22,22,25,25,26,26,27,27,28,28],"right_children":[2,4,6,8,10,12,14,-1,16,18,20,22,24,26,28,30,-1,32,34,36,-1,38,40,-1,-1,42,44,46,48,-1,-1,-1,-1,-1,-1,-1,-1,-1,-1,-1,-1,-1,-1,-1,-1,-1,-1,-1,-1],"split_conditions":[1E0,7.28777E1,7.28777E1,3.8054E2,1.4343E2,3.8054E2,2.86139E1,-8.299694E-2,6.46E0,8.83639E1,8.17E0,9.4E-1,6.29E0,2.61445E1,1.36E0,3.29E0,-8.179629E-2,1.1E0,7.61E0,2.9474E2,-7.69333E-2,4.1E-1,1.58E0,6.491029E-2,-1.2417179E-2,1.05E0,1.023E1,1.536E1,1.4343E2,-3.0395204E-2,-4.4803027E-2,-5.5486914E-2,-8.5556746E-2,9.4512245E-4,-6.561524E-2,-1.200316E-2,-4.0304955E-2,-7.2786654E-3,-2.312674E-2,-5.1935982E-2,-7.868755E-2,6.7397974E-2,3.1017458E-2,7.737153E-2,2.8486732E-2,6.008316E-2,2.4987634E-2,-3.370333E-2,5.4738242E-2],"split_indices":[2,4,4,1,1,1,3,0,6,4,6,6,6,3,6,6,0,6,6,1,0,6,6,0,0,6,6,1,1,0,0,0,0,0,0,0,0,0,0,0,0,0,0,0,0,0,0,0,0],"split_type":[0,0,0,0,0,0,0,0,0,0,0,0,0,0,0,0,0,0,0,0,0,0,0,0,0,0,0,0,0,0,0,0,0,0,0,0,0,0,0,0,0,0,0,0,0,0,0,0,0],"sum_hessian":[2.2974211E3,9.6566724E2,1.3317539E3,4.0043063E2,5.6523663E2,2.2107481E2,1.1106791E3,2.3362659E2,1.6680405E2,2.2928189E2,3.3595474E2,1.68082E2,5.2992805E1,7.436348E2,3.6704425E2,1.0354593E2,6.3258114E1,2.0406894E2,2.521295E1,2.7428052E2,6.1674232E1,9.1836555E1,7.624545E1,4.776622E1,5.226586E0,5.0726483E2,2.3637003E2,2.192219E2,1.4782237E2,4.8935627E1,5.4610302E1,9.6066765E1,1.0800217E2,2.0161396E1,5.051553E0,8.612478E1,1.8815573E2,5.153959E1,4.0296967E1,3.9094727E1,3.7150723E1,3.8336987E2,1.23894936E2,2.2957155E2,6.7984686E0,1.21020905E2,9.820099E1,8.4775406E1,6.304697E1],"tree_param":{"num_deleted":"0","num_feature":"8","num_nodes":"49","size_leaf_vector":"1"}},{"base_weights":[-0E0,-1.1196043E0,8.133855E-1,-1.3258114E0,-6.3833743E-1,9.878827E-1,2.6206365E-1,-1.1324074E0,-1.4470261E0,-8.857462E-1,3.2953805E-1,1.1552653E0,6.0856706E-1,-3.986903E-1,1.1742256E0,-1.2199389E0,-2.7868497E-1,-7.9984754E-2,-1.3061726E0,-2.1753302E-1,-1.3731644E0,7.5125587E-1,-9.1729337E-1,9.554778E-1,1.298252E0,8.942457E-2,9.9805117E-1,2.1145977E-1,-1.0889312E0,1.3392546E0,-2.622885E-1,-4.3907534E-2,-7.577568E-2,4.277127E-3,-5.8693826E-2,-4.872445E-2,-7.7441245E-2,-3.4803615E-3,-6.192713E-2,-4.737701E-2,-7.557153E-2,-0E0,4.5393508E-2,-2.0904738E-2,-5.6414068E-2,6.4936414E-2,-1.3226703E-2,6.796271E-2,1.9060304E-2,4.5526225E-2,-3.055406E-2,7.040091E-2,-2.214513E-3,-1.9060422E-2,2.7998252E-2,-4.3730468E-2,-7.6364875E-2,5.7578683E-2,7.759813E-2,-5.270033E-2,3.780277E-2],"categories":[],"categories_nodes":[],"categories_segments":[],"categories_sizes":[],"default_left":[0,0,0,0,0,0,0,0,0,0,0,0,0,0,0,0,0,0,0,0,0,0,0,0,0,0,0,0,0,0,0,0,0,0,0,0,0,0,0,0,0,0,0,0,0,0,0,0,0,0,0,0,0,0,0,0,0,0,0,0,0],"id":5,"left_children":[1,3,5,7,9,11,13,15,17,19,21,23,25,27,29,31,33,-1,35,37,39,41,43,45,47,49,51,53,55,57,59,-1,-1,-1,-1,-1,-1,-1,-1,-1,-1,-1,-1,-1,-1,-1,-1,-1,-1,-1,-1,-1,-1,-1,-1,-1,-1,-1,-1,-1,-1],"loss_changes":[2.0894658E3,9.477295E1,1.2746423E2,1.3923584E1,7.019136E1,6.317865E1,1.9401195E2,1.930606E1,6.4561157E0,7.531488E1,3.2234474E1,1.8494812E1,6.2726273E1,7.9002266E1,3.2500854E1,2.2662415E1,8.698797E0,0E0,1.5905823E1,1.4795626E1,6.2222595E0,5.3472652E0,1.0126381E0,1.242153E2,2.1918396E1,7.800945E1,7.609009E1,2.0871624E1,6.6825256E0,2.7912292E0,1.2679376E1,0E0,0E0,0E0,0E0,0E0,0E0,0E0,0E0,0E0,0E0,0E0,0E0,0E0,0E0,0E0,0E0,0E0,0E0,0E0,0E0,0E0,0E0,0E0,0E0,0E0,0E0,0E0,0E0,0E0,0E0],"parents":[2147483647,0,0,1,1,2,2,3,3,4,4,5,5,6,6,7,7,8,8,9,9,10,10,11,11,12,12,13,13,14,14,15,15,16,16,18,18,19,19,20,20,21,21,22,22,23,23,24,24,25,25,26,26,27,27,28,28,29,29,30,30],"right_children":[2,4,6,8,10,12,14,16,18,20,22,24,26,28,30,32,34,-1,36,38,40,42,44,46,48,50,52,54,56,58,60,-1,-1,-1,-1,-1,-1,-1,-1,-1,-1,-1,-1,-1,-1,-1,-1,-1,-1,-1,-1,-1,-1,-1,-1,-1,-1,-1,-1,-1,-1],"split_conditions":[1E0,6E0,3.01575E1,3E0,3.36844E1,1.25E0,3.36844E1,3.36844E1,3.36844E1,2.48607E1,7.03E0,2.55941E1,2.61445E1,9.9E-1,8.17E0,2.86139E1,6.62E0,-7.9984754E-2,5.56E0,7E0,5E-1,1.1E0,4.472E2,2.48607E1,2.206E2,2.48607E1,1.602E2,3.15204E1,1.76E0,6E0,5E0,-4.3907534E-2,-7.577568E-2,4.277127E-3,-5.8693826E-2,-4.872445E-2,-7.7441245E-2,-3.4803615E-3,-6.192713E-2,-4.737701E-2,-7.557153E-2,-0E0,4.5393508E-2,-2.0904738E-2,-5.6414068E-2,6.4936414E-2,-1.3226703E-2,6.796271E-2,1.9060304E-2,4.5526225E-2,-3.055406E-2,7.040091E-2,-2.214513E-3,-1.9060422E-2,2.7998252E-2,-4.3730468E-2,-7.6364875E-2,5.7578683E-2,7.759813E-2,-5.270033E-2,3.780277E-2],"split_indices":[2,7,3,7,3,6,3,3,3,3,6,3,3,6,6,3,6,0,6,7,6,6,5,3,5,3,5,3,6,7,7,0,0,0,0,0,0,0,0,0,0,0,0,0,0,0,0,0,0,0,0,0,0,0,0,0,0,0,0,0,0],"split_type":[0,0,0,0,0,0,0,0,0,0,0,0,0,0,0,0,0,0,0,0,0,0,0,0,0,0,0,0,0,0,0,0,0,0,0,0,0,0,0,0,0,0,0,0,0,0,0,0,0,0,0,0,0,0,0,0,0,0,0,0,0],"sum_hessian":[2.2924148E3,9.64489E2,1.3279258E3,6.7381775E2,2.9067126E2,1.0079343E3,3.1999146E2,2.6390762E2,4.099101E2,2.3164598E2,5.9025276E1,6.9773267E2,3.1020163E2,1.8583162E2,1.3415985E2,2.3887035E2,2.5037292E1,1.9139397E2,2.1851614E2,9.839939E1,1.3324658E2,4.446386E1,1.4561414E1,2.9455222E2,4.0318048E2,1.336055E2,1.7659613E2,9.8929756E1,8.6901855E1,1.2045868E2,1.3701173E1,1.1277368E2,1.26096664E2,1.835991E1,6.6773815E0,9.461464E1,1.23901505E2,8.6965744E1,1.1433644E1,3.477501E1,9.847158E1,7.8451457E0,3.6618717E1,5.352629E0,9.208785E0,2.2989005E2,6.4662155E1,3.7747913E2,2.5701355E1,6.1436028E1,7.216948E1,1.2656251E2,5.0033623E1,3.6491505E1,6.2438255E1,6.0530926E1,2.6370932E1,6.765123E1,5.280745E1,7.743847E0,5.9573255E0],"tree_param":{"num_deleted":"0","num_feature":"8","num_nodes":"61","size_leaf_vector":"1"}},{"base_weights":[-4.198486E-3,-1.0674332E0,7.8173006E-1,-1.2677275E0,-6.187154E-1,-2.5334027E-1,9.8519385E-1,-4.87106E-1,-1.335553E0,-1.315535E0,-2.4619053E-1,-6.8911946E-1,1.0777676E0,1.1988069E0,3.9361742E-1,1.1170336E-1,-6.9544844E-2,-1.4164171E0,-1.1910661E0,-6.039873E-1,-7.0604615E-2,-5.3276896E-1,3.2294282E-1,-7.211055E-2,-8.966898E-1,6.799358E-2,7.1160746E-1,1.4167005E0,1.1012895E0,-8.369925E-3,8.921108E-1,-1.7866774E-2,4.8929665E-2,-7.596738E-2,-5.908812E-2,-3.258694E-2,-6.256256E-2,5.7881223E-3,-5.5564743E-2,-7.485468E-2,-1.2737199E-2,4.684722E-2,3.233655E-3,-1.7158018E-2,4.1882213E-2,-2.1501502E-2,-5.33317E-2,6.914258E-3,5.6551207E-2,7.692469E-2,6.580398E-2,5.0516E-2,6.625775E-2,9.240803E-3,-4.5350518E-2,2.9672628E-2,7.3818795E-2],"categories":[],"categories_nodes":[],"categories_segments":[],"categories_sizes":[],"default_left":[0,0,0,0,0,0,0,0,0,0,0,0,0,0,0,0,0,0,0,0,0,0,0,0,0,0,0,0,0,0,0,0,0,0,0,0,0,0,0,0,0,0,0,0,0,0,0,0,0,0,0,0,0,0,0,0,0],"id":6,"left_children":[1,3,5,7,9,11,13,15,17,19,21,23,25,27,29,31,-1,33,35,37,-1,39,41,43,45,-1,47,49,51,53,55,-1,-1,-1,-1,-1,-1,-1,-1,-1,-1,-1,-1,-1,-1,-1,-1,-1,-1,-1,-1,-1,-1,-1,-1,-1,-1],"loss_changes":[1.8916655E3,8.5503784E1,2.7442944E2,3.43302E1,7.714817E1,1.2514688E2,1.368606E2,2.9931839E1,5.1833496E0,6.0809326E0,3.2192635E1,2.0622955E1,4.3250885E0,1.5160522E1,5.82606E1,1.4159262E1,0E0,7.247925E0,6.3217163E0,5.4424944E0,0E0,3.4560837E1,1.0338919E1,1.0609761E1,9.005592E0,0E0,5.8297596E0,6.6955566E-1,9.763062E0,2.8288095E1,2.1548378E1,0E0,0E0,0E0,0E0,0E0,0E0,0E0,0E0,0E0,0E0,0E0,0E0,0E0,0E0,0E0,0E0,0E0,0E0,0E0,0E0,0E0,0E0,0E0,0E0,0E0,0E0],"parents":[2147483647,0,0,1,1,2,2,3,3,4,4,5,5,6,6,7,7,8,8,9,9,10,10,11,11,12,12,13,13,14,14,15,15,17,17,18,18,19,19,21,21,22,22,23,23,24,24,26,26,27,27,28,28,29,29,30,30],"right_children":[2,4,6,8,10,12,14,16,18,20,22,24,26,28,30,32,-1,34,36,38,-1,40,42,44,46,-1,48,50,52,54,56,-1,-1,-1,-1,-1,-1,-1,-1,-1,-1,-1,-1,-1,-1,-1,-1,-1,-1,-1,-1,-1,-1,-1,-1,-1,-1],"split_conditions":[1E0,6E0,7.28777E1,7.14E0,2.7157E2,3.8054E2,1.794E2,2E0,2.764E2,7.14E0,2.097E2,1.52E1,1E0,6.2E0,6E0,4.32E0,-6.9544844E-2,3.8054E2,1E0,4.31E1,-7.0604615E-2,3.8054E2,3.451E2,6E0,1E0,6.799358E-2,6E0,7.14E0,6E0,5E0,1.4343E2,-1.7866774E-2,4.8929665E-2,-7.596738E-2,-5.908812E-2,-3.258694E-2,-6.256256E-2,5.7881223E-3,-5.5564743E-2,-7.485468E-2,-1.2737199E-2,4.684722E-2,3.233655E-3,-1.7158018E-2,4.1882213E-2,-2.1501502E-2,-5.33317E-2,6.914258E-3,5.6551207E-2,7.692469E-2,6.580398E-2,5.0516E-2,6.625775E-2,9.240803E-3,-4.5350518E-2,2.9672628E-2,7.3818795E-2],"split_indices":[2,7,4,1,1,1,5,7,5,1,5,5,7,5,7,1,0,1,7,5,0,1,5,7,7,0,7,1,7,7,1,0,0,0,0,0,0,0,0,0,0,0,0,0,0,0,0,0,0,0,0,0,0,0,0,0,0],"split_type":[0,0,0,0,0,0,0,0,0,0,0,0,0,0,0,0,0,0,0,0,0,0,0,0,0,0,0,0,0,0,0,0,0,0,0,0,0,0,0,0,0,0,0,0,0,0,0,0,0,0,0,0,0,0,0,0,0],"sum_hessian":[2.2617363E3,9.611815E2,1.3005548E3,6.6313135E2,2.9805014E2,2.1353142E2,1.0870233E3,5.378315E1,6.093482E2,1.0285562E2,1.9519453E2,1.6128667E2,5.2244743E1,7.9776276E2,2.8926062E2,3.2810326E1,2.0972822E1,3.8460406E2,2.2474417E2,1.3280478E1,8.957514E1,1.2998311E2,6.521142E1,4.1060955E1,1.20225716E2,2.7822346E1,2.4422396E1,2.421493E2,5.5561346E2,1.6056383E2,1.286968E2,2.1597332E1,1.1212996E1,2.6323575E2,1.2136832E2,2.3916357E1,2.008278E2,5.728202E0,7.552275E0,2.8027124E1,1.01955986E2,1.841567E1,4.679575E1,3.2200073E1,8.860881E0,3.319432E1,8.7031395E1,1.0980593E1,1.3441804E1,1.0263466E2,1.3951465E2,3.9931024E2,1.563032E2,1.3271613E2,2.7847702E1,8.661086E1,4.208593E1],"tree_param":{"num_deleted":"0","num_feature":"8","num_nodes":"57","size_leaf_vector":"1"}},{"base_weights":[1.8295322E-2,9.8062664E-1,-2.6279625E-1,1.1809046E0,5.72656E-1,-5.0592345E-1,3.667918E-1,9.12688E-1,7.3829375E-2,-1.4414255E-1,1.1205274E0,-7.771693E-1,1.0597697E-1,5.1733077E-1,-9.231067E-1,1.1523467E0,-5.3365684E-1,-1.171971E0,3.0837953E-1,8.3058816E-1,7.268478E-2,-4.2052016E-1,-1.1178617E0,-2.4801746E-1,8.59219E-1,6.6259664E-1,1.6106832E-1,-1.2347314E0,-4.424165E-1,6.2926084E-2,3.5285212E-2,-1.8834727E-3,-8.1346996E-2,-2.3258997E-2,-6.901917E-2,3.388329E-2,-3.2863423E-2,5.378711E-2,-1.4016787E-2,-4.1079212E-2,-3.1509467E-3,-7.292506E-2,-4.3418445E-2,2.4760598E-2,-3.561855E-2,5.6307267E-2,-2.129649E-2,2.8241768E-2,4.007266E-2,-3.736068E-2,3.1943645E-2,-4.355629E-2,-8.3220415E-2,2.7972036E-3,-7.329639E-2],"categories":[],"categories_nodes":[],"categories_segments":[],"categories_sizes":[],"default_left":[0,0,0,0,0,0,0,0,0,0,0,0,0,0,0,0,0,0,0,0,0,0,0,0,0,0,0,0,0,0,0,0,0,0,0,0,0,0,0,0,0,0,0,0,0,0,0,0,0,0,0,0,0,0,0],"id":7,"left_children":[1,3,5,7,9,11,13,15,-1,17,19,21,23,25,27,29,31,33,35,37,-1,39,41,43,45,47,49,51,53,-1,-1,-1,-1,-1,-1,-1,-1,-1,-1,-1,-1,-1,-1,-1,-1,-1,-1,-1,-1,-1,-1,-1,-1,-1,-1],"loss_changes":[6.087041E2,4.0714478E1,2.667448E2,2.5386261E1,6.686779E1,2.0873962E2,9.4726326E1,6.3462402E1,0E0,3.4998734E1,7.8691406E0,1.0520831E2,1.03401405E2,2.2351318E1,6.9311066E0,6.301956E0,1.4072235E1,2.5589046E0,1.9098051E1,1.5087364E1,0E0,6.11232E1,3.6295776E1,9.1415764E1,4.3074814E1,3.603485E0,5.5874313E1,3.0271225E0,1.1321237E1,0E0,0E0,0E0,0E0,0E0,0E0,0E0,0E0,0E0,0E0,0E0,0E0,0E0,0E0,0E0,0E0,0E0,0E0,0E0,0E0,0E0,0E0,0E0,0E0,0E0,0E0],"parents":[2147483647,0,0,1,1,2,2,3,3,4,4,5,5,6,6,7,7,9,9,10,10,11,11,12,12,13,13,14,14,15,15,16,16,17,17,18,18,19,19,21,21,22,22,23,23,24,24,25,25,26,26,27,27,28,28],"right_children":[2,4,6,8,10,12,14,16,-1,18,20,22,24,26,28,30,32,34,36,38,-1,40,42,44,46,48,50,52,54,-1,-1,-1,-1,-1,-1,-1,-1,-1,-1,-1,-1,-1,-1,-1,-1,-1,-1,-1,-1,-1,-1,-1,-1,-1,-1],"split_conditions":[7.14E0,2E0,4.7014E2,4.32E0,6E0,6E0,3.84E0,1.38E0,7.3829375E-2,4.32E0,4.32E0,3E0,3.36844E1,1.01E0,4.16E1,5.98E1,2.02E0,4.05E1,5.67E0,1.22E0,7.268478E-2,1.602E2,3.36844E1,1.536E1,7.47E0,6E0,1E0,5.67E0,8.17E0,6.2926084E-2,3.5285212E-2,-1.8834727E-3,-8.1346996E-2,-2.3258997E-2,-6.901917E-2,3.388329E-2,-3.2863423E-2,5.378711E-2,-1.4016787E-2,-4.1079212E-2,-3.1509467E-3,-7.292506E-2,-4.3418445E-2,2.4760598E-2,-3.561855E-2,5.6307267E-2,-2.129649E-2,2.8241768E-2,4.007266E-2,-3.736068E-2,3.1943645E-2,-4.355629E-2,-8.3220415E-2,2.7972036E-3,-7.329639E-2],"split_indices":[1,7,1,1,7,7,6,6,0,1,1,7,3,6,5,5,6,5,6,6,0,5,3,1,6,7,0,6,6,0,0,0,0,0,0,0,0,0,0,0,0,0,0,0,0,0,0,0,0,0,0,0,0,0,0],"split_type":[0,0,0,0,0,0,0,0,0,0,0,0,0,0,0,0,0,0,0,0,0,0,0,0,0,0,0,0,0,0,0,0,0,0,0,0,0,0,0,0,0,0,0,0,0,0,0,0,0,0,0,0,0,0,0],"sum_hessian":[2.2480476E3,5.077176E2,1.74033E3,3.391063E2,1.686113E2,1.2557528E3,4.8457715E2,1.8013188E2,1.589744E2,7.328477E1,9.532654E1,8.6999225E2,3.8576056E2,4.3454013E2,5.0037E1,1.5476054E2,2.5371344E1,2.1983664E1,5.1301105E1,5.299813E1,4.2328407E1,4.262775E2,4.4371475E2,2.6279507E2,1.2296547E2,3.0786694E2,1.26673195E2,2.9279081E1,2.0757917E1,1.2338749E2,3.1373053E1,1.8227867E1,7.1434755E0,5.851442E0,1.6132221E1,3.740019E1,1.3900918E1,4.3516727E1,9.481403E0,2.0015501E2,2.2612247E2,1.8537311E2,2.5834164E2,1.0094459E2,1.6185048E2,1.0198471E2,2.0980766E1,1.840649E2,1.23802055E2,4.339962E1,8.3273575E1,1.7624676E1,1.1654407E1,1.4530481E1,6.2274356E0],"tree_param":{"num_deleted":"0","num_feature":"8","num_nodes":"55","size_leaf_vector":"1"}},{"base_weights":[-4.477514E-3,-8.9425176E-1,3.1903818E-1,-1.1296706E0,-4.6848053E-1,9.1696125E-1,5.838154E-2,-8.570041E-1,-1.361475E0,-8.672925E-2,-1.3835921E0,1.123157E0,4.9953067E-1,4.6440065E-1,-3.8388377E-1,-6.933184E-1,-1.0363752E0,-1.2306153E0,-7.3239006E-2,7.452391E-1,-4.2260662E-1,-9.8243326E-1,-7.564337E-2,8.568694E-1,7.073367E-2,-1.8253256E-1,1.0143118E0,6.19722E-1,-5.8959045E-2,-7.282421E-1,1.6389886E-1,-4.1018415E-2,-1.807027E-2,-6.844213E-2,-3.3013012E-2,-4.709324E-2,-6.950106E-2,4.160776E-2,1.3211508E-2,-4.8321035E-2,3.830899E-2,-5.771294E-2,-3.162596E-2,5.5251535E-2,-3.6698658E-2,-5.6131E-2,1.29727E-2,3.623494E-2,6.876873E-2,2.420642E-2,3.946681E-2,-1.5843585E-2,2.0492924E-2,-2.9218832E-2,-6.772728E-2,3.921103E-2,-3.513901E-2],"categories":[],"categories_nodes":[],"categories_segments":[],"categories_sizes":[],"default_left":[0,0,0,0,0,0,0,0,0,0,0,0,0,0,0,0,0,0,0,0,0,0,0,0,0,0,0,0,0,0,0,0,0,0,0,0,0,0,0,0,0,0,0,0,0,0,0,0,0,0,0,0,0,0,0,0,0],"id":8,"left_children":[1,3,5,7,9,11,13,15,17,19,21,23,25,27,29,31,33,35,-1,37,39,41,-1,43,-1,45,47,49,51,53,55,-1,-1,-1,-1,-1,-1,-1,-1,-1,-1,-1,-1,-1,-1,-1,-1,-1,-1,-1,-1,-1,-1,-1,-1,-1,-1],"loss_changes":[6.431717E2,5.9031036E1,2.5519145E2,2.2806702E1,7.44919E1,4.2072388E1,2.0528067E2,4.3580475E0,6.993103E-1,4.2798817E1,1.5235443E0,2.4321075E1,5.8678635E1,4.854477E1,1.0337806E2,3.667263E0,9.271881E0,2.928131E0,0E0,1.5114555E0,7.129994E1,1.9499779E-1,0E0,7.038727E1,0E0,3.042566E1,8.731506E0,1.006694E1,1.6707071E1,2.9309402E1,1.1447104E2,0E0,0E0,0E0,0E0,0E0,0E0,0E0,0E0,0E0,0E0,0E0,0E0,0E0,0E0,0E0,0E0,0E0,0E0,0E0,0E0,0E0,0E0,0E0,0E0,0E0,0E0],"parents":[2147483647,0,0,1,1,2,2,3,3,4,4,5,5,6,6,7,7,8,8,9,9,10,10,11,11,12,12,13,13,14,14,15,15,16,16,17,17,19,19,20,20,21,21,23,23,25,25,26,26,27,27,28,28,29,29,30,30],"right_children":[2,4,6,8,10,12,14,16,18,20,22,24,26,28,30,32,34,36,-1,38,40,42,-1,44,-1,46,48,50,52,54,56,-1,-1,-1,-1,-1,-1,-1,-1,-1,-1,-1,-1,-1,-1,-1,-1,-1,-1,-1,-1,-1,-1,-1,-1,-1,-1],"split_conditions":[7.28777E1,3.8054E2,7.14E0,9.5E-1,6.78E0,2E0,1.15E0,3E0,1.58E0,1E0,7.93E0,4.32E0,6E0,3.01575E1,6E0,2E0,6E0,2.7157E2,-7.3239006E-2,5.04E0,6E0,7.47E0,-7.564337E-2,1.38E0,7.073367E-2,4.32E0,4.32E0,6E0,6E0,7.76E0,7.43587E1,-4.1018415E-2,-1.807027E-2,-6.844213E-2,-3.3013012E-2,-4.709324E-2,-6.950106E-2,4.160776E-2,1.3211508E-2,-4.8321035E-2,3.830899E-2,-5.771294E-2,-3.162596E-2,5.5251535E-2,-3.6698658E-2,-5.6131E-2,1.29727E-2,3.623494E-2,6.876873E-2,2.420642E-2,3.946681E-2,-1.5843585E-2,2.0492924E-2,-2.9218832E-2,-6.772728E-2,3.921103E-2,-3.513901E-2],"split_indices":[4,1,1,6,6,7,6,7,6,7,6,1,7,3,7,7,7,1,0,6,7,6,0,6,0,1,1,7,7,6,4,0,0,0,0,0,0,0,0,0,0,0,0,0,0,0,0,0,0,0,0,0,0,0,0,0,0],"split_type":[0,0,0,0,0,0,0,0,0,0,0,0,0,0,0,0,0,0,0,0,0,0,0,0,0,0,0,0,0,0,0,0,0,0,0,0,0,0,0,0,0,0,0,0,0,0,0,0,0,0,0,0,0,0,0,0,0],"sum_hessian":[2.2321619E3,5.9480316E2,1.6373588E3,3.8180576E2,2.1299742E2,4.962057E2,1.1411531E3,1.777963E2,2.0400946E2,1.5114801E2,6.1849403E1,3.3084827E2,1.6535742E2,5.950484E2,5.461047E2,9.579812E1,8.199817E1,9.612525E1,1.078842E2,4.3034653E1,1.0811336E2,1.7358065E1,4.449134E1,1.7514406E2,1.5570421E2,7.131682E1,9.40406E1,4.5887234E2,1.3617603E2,3.3522302E2,2.1088162E2,6.799719E1,2.7800926E1,4.198242E1,4.0015743E1,3.6871487E1,5.9253765E1,3.565419E1,7.3804646E0,7.436571E1,3.3747654E1,9.908174E0,7.44989E0,1.518281E2,2.3315968E1,2.2386967E1,4.8929855E1,5.4005894E1,4.0034714E1,2.574803E2,2.0139204E2,8.8194565E1,4.798146E1,2.743061E2,6.0916935E1,1.230323E2,8.784932E1],"tree_param":{"num_deleted":"0","num_feature":"8","num_nodes":"57","size_leaf_vector":"1"}},{"base_weights":[1.4531165E-2,-9.911678E-1,7.392834E-1,-1.2337626E0,-8.296455E-1,-2.1254632E-1,9.256767E-1,-7.3024005E-2,-9.377648E-1,-1.098313E0,-6.469506E-1,-6.453566E-1,1.0727156E0,1.1320057E0,4.2909193E-1,-6.59234E-1,-7.114946E-2,-1.8252957E-1,-1.2650445E0,-4.878997E-1,-6.5042675E-2,-2.6475233E-1,-1.2024747E0,6.077692E-2,-0E0,1.1488212E0,1.3130847E-2,2.1850176E-1,1.0462044E0,-1.7679539E-2,-4.5833703E-2,9.167655E-3,-1.9889334E-2,-4.3700527E-2,-6.887444E-2,-3.3344418E-2,-4.8312545E-3,-4.858742E-3,-5.16859E-2,-5.1654667E-2,-7.521175E-2,5.255146E-2,6.632979E-2,-3.9051067E-2,3.5479E-2,2.7287772E-2,-4.9179766E-2,6.2007725E-2,3.6897236E-3],"categories":[],"categories_nodes":[],"categories_segments":[],"categories_sizes":[],"default_left":[0,0,0,0,0,0,0,0,0,0,0,0,0,0,0,0,0,0,0,0,0,0,0,0,0,0,0,0,0,0,0,0,0,0,0,0,0,0,0,0,0,0,0,0,0,0,0,0,0],"id":9,"left_children":[1,3,5,7,9,11,13,-1,15,17,19,21,23,25,27,29,-1,31,33,35,-1,37,39,-1,-1,41,43,45,47,-1,-1,-1,-1,-1,-1,-1,-1,-1,-1,-1,-1,-1,-1,-1,-1,-1,-1,-1,-1],"loss_changes":[1.6064493E3,3.4939026E1,2.2753192E2,2.2994507E1,2.6475006E1,1.1774289E2,1.09141785E2,0E0,2.0748657E1,3.3821533E1,3.3970154E1,3.3069473E1,8.200169E0,1.4096436E1,4.0746456E1,7.804306E0,0E0,2.9105246E0,6.890259E0,1.8819916E1,0E0,1.20733E1,1.4533157E0,0E0,0E0,1.1318176E1,7.34803E0,9.379968E1,1.4880562E1,0E0,0E0,0E0,0E0,0E0,0E0,0E0,0E0,0E0,0E0,0E0,0E0,0E0,0E0,0E0,0E0,0E0,0E0,0E0,0E0],"parents":[2147483647,0,0,1,1,2,2,3,3,4,4,5,5,6,6,8,8,9,9,10,10,11,11,12,12,13,13,14,14,15,15,17,17,18,18,19,19,21,21,22,22,25,25,26,26,27,27,28,28],"right_children":[2,4,6,8,10,12,14,-1,16,18,20,22,24,26,28,30,-1,32,34,36,-1,38,40,-1,-1,42,44,46,48,-1,-1,-1,-1,-1,-1,-1,-1,-1,-1,-1,-1,-1,-1,-1,-1,-1,-1,-1,-1],"split_conditions":[1E0,7.28777E1,7.28777E1,3.8054E2,1.4343E2,3.8054E2,1.681E2,-7.3024005E-2,6.62E0,5.11E1,7.76E0,1.06E0,6.18E0,8.38E0,1.4343E2,3.451E2,-7.114946E-2,2.53E1,1.636E2,6.35E1,-6.5042675E-2,1.239E2,2.24E0,6.077692E-2,-0E0,2.61445E1,9.32E1,1.71E0,7.31E0,-1.7679539E-2,-4.5833703E-2,9.167655E-3,-1.9889334E-2,-4.3700527E-2,-6.887444E-2,-3.3344418E-2,-4.8312545E-3,-4.858742E-3,-5.16859E-2,-5.1654667E-2,-7.521175E-2,5.255146E-2,6.632979E-2,-3.9051067E-2,3.5479E-2,2.7287772E-2,-4.9179766E-2,6.2007725E-2,3.6897236E-3],"split_indices":[2,4,4,1,1,1,5,0,6,5,6,6,6,6,1,5,0,5,5,5,0,5,6,0,0,3,5,6,6,0,0,0,0,0,0,0,0,0,0,0,0,0,0,0,0,0,0,0,0],"split_type":[0,0,0,0,0,0,0,0,0,0,0,0,0,0,0,0,0,0,0,0,0,0,0,0,0,0,0,0,0,0,0,0,0,0,0,0,0,0,0,0,0,0,0,0,0,0,0,0,0],"sum_hessian":[2.2020188E3,9.2204364E2,1.2799751E3,3.6563248E2,5.5641113E2,2.0949557E2,1.0704795E3,2.0462752E2,1.6100496E2,2.2296469E2,3.3344647E2,1.571509E2,5.2344673E1,7.552113E2,3.1526822E2,1.0391811E2,5.708685E1,3.475656E1,1.8820811E2,2.6973663E2,6.3709843E1,9.434933E1,6.2801567E1,4.6095306E1,6.2493663E0,7.439149E2,1.1296405E1,2.3618576E2,7.9082466E1,4.8773808E1,5.5144306E1,1.2756829E1,2.1999733E1,4.4191315E1,1.4401682E2,1.8441565E2,8.532098E1,7.8498825E1,1.5850507E1,4.3269096E1,1.953247E1,4.8473938E2,2.5917554E2,5.154161E0,6.1422434E0,1.8614078E2,5.004497E1,6.561682E1,1.3465645E1],"tree_param":{"num_deleted":"0","num_feature":"8","num_nodes":"49","size_leaf_vector":"1"}},{"base_weights":[-2.0464933E-2,-9.857513E-1,6.904752E-1,-1.1618038E0,-5.896901E-1,-1.6383289E-1,8.625152E-1,-1.2184399E0,-8.123451E-1,-8.39616E-1,3.2649505E-1,-5.4456E-1,1.0064006E0,1.0567268E0,4.1857588E-1,-1.3487484E0,-1.0348932E0,-6.382933E-1,-6.5825336E-2,-1.1299746E0,3.2410081E-3,7.348397E-1,1.8197589E-2,-3.8326564E-1,-1.208123E0,6.218071E-2,7.112783E-1,9.5306575E-1,1.2345027E0,8.388405E-2,8.5898286E-1,-6.929153E-2,-5.7953876E-2,-1.2307419E-2,-5.6359548E-2,-4.2474866E-2,3.496459E-2,-6.564913E-2,-3.0100415E-2,-2.223487E-3,2.01086E-2,5.2286606E-2,2.508072E-2,1.09467935E-2,-2.0144666E-2,-2.8051663E-2,1.5049464E-2,-6.6433355E-2,-3.7249606E-2,3.8359573E-3,5.8108713E-2,5.184823E-2,2.428082E-2,6.929931E-2,4.906674E-2,1.3336763E-2,-4.454065E-2,3.1478047E-2,6.8439975E-2],"categories":[],"categories_nodes":[],"categories_segments":[],"categories_sizes":[],"default_left":[0,0,0,0,0,0,0,0,0,0,0,0,0,0,0,0,0,0,0,0,0,0,0,0,0,0,0,0,0,0,0,0,0,0,0,0,0,0,0,0,0,0,0,0,0,0,0,0,0,0,0,0,0,0,0,0,0,0,0],"id":10,"left_children":[1,3,5,7,9,11,13,15,17,19,21,23,25,27,29,31,33,35,-1,37,39,41,43,45,47,-1,49,51,53,55,57,-1,-1,-1,-1,-1,-1,-1,-1,-1,-1,-1,-1,-1,-1,-1,-1,-1,-1,-1,-1,-1,-1,-1,-1,-1,-1,-1,-1],"loss_changes":[1.4925774E3,6.346289E1,1.8428485E2,1.1422852E1,6.5831116E1,9.4366684E1,8.931305E1,1.14313965E1,7.049858E0,5.5212646E1,7.710021E0,1.6467522E1,2.560543E0,1.1957581E1,4.6877125E1,3.607788E-1,1.643248E1,2.0549677E1,0E0,1.5205872E1,1.1688724E0,1.2410717E0,3.1519873E0,1.6012295E1,5.131798E-1,0E0,7.1394014E0,1.7480377E1,8.494873E0,3.2715206E1,1.5029625E1,0E0,0E0,0E0,0E0,0E0,0E0,0E0,0E0,0E0,0E0,0E0,0E0,0E0,0E0,0E0,0E0,0E0,0E0,0E0,0E0,0E0,0E0,0E0,0E0,0E0,0E0,0E0,0E0],"parents":[2147483647,0,0,1,1,2,2,3,3,4,4,5,5,6,6,7,7,8,8,9,9,10,10,11,11,12,12,13,13,14,14,15,15,16,16,17,17,19,19,20,20,21,21,22,22,23,23,24,24,26,26,27,27,28,28,29,29,30,30],"right_children":[2,4,6,8,10,12,14,16,18,20,22,24,26,28,30,32,34,36,-1,38,40,42,44,46,48,-1,50,52,54,56,58,-1,-1,-1,-1,-1,-1,-1,-1,-1,-1,-1,-1,-1,-1,-1,-1,-1,-1,-1,-1,-1,-1,-1,-1,-1,-1,-1,-1],"split_conditions":[1E0,6E0,7.28777E1,8.51376E1,3.36844E1,3.15204E1,1.681E2,3.36844E1,2E0,1E0,3.836E2,1.239E2,1E0,2.61445E1,6E0,1E0,1E0,2.61445E1,-6.5825336E-2,8.83639E1,4.93E1,3.069E2,3.40151E1,6E0,1.491E2,6.218071E-2,6E0,5.3E1,2E0,5E0,3.36844E1,-6.929153E-2,-5.7953876E-2,-1.2307419E-2,-5.6359548E-2,-4.2474866E-2,3.496459E-2,-6.564913E-2,-3.0100415E-2,-2.223487E-3,2.01086E-2,5.2286606E-2,2.508072E-2,1.09467935E-2,-2.0144666E-2,-2.8051663E-2,1.5049464E-2,-6.6433355E-2,-3.7249606E-2,3.8359573E-3,5.8108713E-2,5.184823E-2,2.428082E-2,6.929931E-2,4.906674E-2,1.3336763E-2,-4.454065E-2,3.1478047E-2,6.8439975E-2],"split_indices":[2,7,4,4,3,3,5,3,7,0,5,5,7,3,7,0,7,3,0,4,5,5,3,7,5,0,7,5,7,7,3,0,0,0,0,0,0,0,0,0,0,0,0,0,0,0,0,0,0,0,0,0,0,0,0,0,0,0,0],"split_type":[0,0,0,0,0,0,0,0,0,0,0,0,0,0,0,0,0,0,0,0,0,0,0,0,0,0,0,0,0,0,0,0,0,0,0,0,0,0,0,0,0,0,0,0,0,0,0,0,0,0,0,0,0,0,0,0,0,0,0],"sum_hessian":[2.172907E3,9.214936E2,1.2514133E3,6.3641565E2,2.8507797E2,2.0967671E2,1.0417366E3,5.4527167E2,9.114396E1,2.2413026E2,6.0947716E1,1.5867352E2,5.100319E1,7.235828E2,3.1815378E2,3.148509E2,2.3042076E2,6.9585396E1,2.1558567E1,1.6653728E2,5.759299E1,2.5484806E1,3.546291E1,1.290365E2,2.9637026E1,2.6306108E1,2.4697079E1,4.6144046E2,2.6214233E2,1.815787E2,1.3657507E2,2.5764545E2,5.720544E1,2.4636444E1,2.0578432E2,6.0475937E1,9.109457E0,1.2242505E2,4.411222E1,5.2010567E1,5.5824237E0,9.246517E0,1.6238289E1,2.4500721E1,1.0962189E1,1.0268534E2,2.6351154E1,2.186197E1,7.775055E0,1.0837323E1,1.3859756E1,3.9000867E2,7.14318E1,1.6096121E2,1.01181114E2,1.5359375E2,2.7984941E1,9.586571E1,4.0709377E1],"tree_param":{"num_deleted":"0","num_feature":"8","num_nodes":"59","size_leaf_vector":"1"}},{"base_weights":[-9.598111E-3,-9.468576E-1,6.72668E-1,-1.1157049E0,-5.7846814E-1,-1.5660317E-1,8.393932E-1,-1.1816021E0,-7.387214E-1,-8.149423E-1,2.3452032E-1,-5.0354195E-1,9.6191376E-1,1.0259526E0,4.8328573E-1,-6.6850685E-2,-9.7349656E-1,-5.010782E-1,-1.0554327E0,-1.0919677E0,4.6675913E-3,5.645072E-1,-1.0073837E0,-1.08458504E-1,-9.701102E-1,1.1306187E0,-1.3315481E-2,9.3516874E-1,1.219837E0,7.997971E-1,1.2392948E-1,-3.3565264E-2,-6.704506E-2,-4.4132482E-2,-3.4000443E-3,-6.9603406E-2,-1.9808479E-2,-6.4209335E-2,-2.7437216E-2,1.7619392E-2,-4.1433558E-2,-1.0997297E-3,3.3765953E-2,-2.6766941E-2,-7.3584214E-2,-1.50027005E-2,3.9886422E-2,-3.905852E-2,-7.254137E-2,6.0053803E-2,2.7279828E-2,5.500796E-2,2.9880846E-2,6.30723E-2,4.946697E-3,5.1875878E-2,2.5236556E-2,-2.0060858E-2,5.0686937E-2],"categories":[],"categories_nodes":[],"categories_segments":[],"categories_sizes":[],"default_left":[0,0,0,0,0,0,0,0,0,0,0,0,0,0,0,0,0,0,0,0,0,0,0,0,0,0,0,0,0,0,0,0,0,0,0,0,0,0,0,0,0,0,0,0,0,0,0,0,0,0,0,0,0,0,0,0,0,0,0],"id":11,"left_children":[1,3,5,7,9,11,13,15,17,19,21,23,25,27,29,-1,31,33,35,37,39,41,43,45,47,49,-1,51,53,55,57,-1,-1,-1,-1,-1,-1,-1,-1,-1,-1,-1,-1,-1,-1,-1,-1,-1,-1,-1,-1,-1,-1,-1,-1,-1,-1,-1,-1],"loss_changes":[1.3739896E3,5.5491455E1,1.7211426E2,1.4323669E1,5.53797E1,8.149722E1,6.814868E1,1.5459717E1,6.470436E0,5.0625366E1,2.7284023E1,2.9309048E1,1.069141E1,1.0585632E1,4.053562E1,0E0,2.427597E1,9.16435E0,8.0733185E0,1.6483368E1,1.6790943E1,3.4788437E0,2.080577E0,1.5461933E1,5.2913055E0,9.830208E-1,0E0,2.5165985E1,9.660858E0,1.2653069E1,7.9446434E1,0E0,0E0,0E0,0E0,0E0,0E0,0E0,0E0,0E0,0E0,0E0,0E0,0E0,0E0,0E0,0E0,0E0,0E0,0E0,0E0,0E0,0E0,0E0,0E0,0E0,0E0,0E0,0E0],"parents":[2147483647,0,0,1,1,2,2,3,3,4,4,5,5,6,6,7,7,8,8,9,9,10,10,11,11,12,12,13,13,14,14,16,16,17,17,18,18,19,19,20,20,21,21,22,22,23,23,24,24,25,25,27,27,28,28,29,29,30,30],"right_children":[2,4,6,8,10,12,14,16,18,20,22,24,26,28,30,-1,32,34,36,38,40,42,44,46,48,50,-1,52,54,56,58,-1,-1,-1,-1,-1,-1,-1,-1,-1,-1,-1,-1,-1,-1,-1,-1,-1,-1,-1,-1,-1,-1,-1,-1,-1,-1,-1,-1],"split_conditions":[1E0,6E0,7.28777E1,8.51376E1,3.36844E1,3.15204E1,2.86139E1,3.36844E1,1.02E0,1E0,8.17E0,9.5E-1,6.18E0,2.61445E1,1.15E0,-6.6850685E-2,6.78E0,2.48607E1,2.61445E1,8.83639E1,3.52E0,1.1E0,1.145E1,6E0,2.24E0,5.13E0,-1.3315481E-2,8.5E-1,9.71E0,3.01575E1,3.36844E1,-3.3565264E-2,-6.704506E-2,-4.4132482E-2,-3.4000443E-3,-6.9603406E-2,-1.9808479E-2,-6.4209335E-2,-2.7437216E-2,1.7619392E-2,-4.1433558E-2,-1.0997297E-3,3.3765953E-2,-2.6766941E-2,-7.3584214E-2,-1.50027005E-2,3.9886422E-2,-3.905852E-2,-7.254137E-2,6.0053803E-2,2.7279828E-2,5.500796E-2,2.9880846E-2,6.30723E-2,4.946697E-3,5.1875878E-2,2.5236556E-2,-2.0060858E-2,5.0686937E-2],"split_indices":[2,7,4,4,3,3,3,3,6,0,6,6,6,3,6,0,6,3,3,4,6,6,6,7,6,6,0,6,6,3,3,0,0,0,0,0,0,0,0,0,0,0,0,0,0,0,0,0,0,0,0,0,0,0,0,0,0,0,0],"split_type":[0,0,0,0,0,0,0,0,0,0,0,0,0,0,0,0,0,0,0,0,0,0,0,0,0,0,0,0,0,0,0,0,0,0,0,0,0,0,0,0,0,0,0,0,0,0,0,0,0,0,0,0,0,0,0,0,0,0,0],"sum_hessian":[2.1466318E3,9.042213E2,1.2424105E3,6.184577E2,2.8576358E2,2.0788356E2,1.0345269E3,5.2439343E2,9.4064285E1,2.2146622E2,6.429735E1,1.5915614E2,4.8727432E1,6.7745605E2,3.5707086E2,2.9682312E2,2.275703E2,5.539599E1,3.86683E1,1.653636E2,5.6102627E1,5.1293976E1,1.3003373E1,8.6963486E1,7.219266E1,4.298415E1,5.7432823E0,4.6572534E2,2.117307E2,1.8905357E2,1.6801727E2,1.2656752E2,1.0100278E2,2.8774578E1,2.6621408E1,2.476134E1,1.3906962E1,1.2099983E2,4.4363766E1,4.007712E1,1.6025505E1,8.135217E0,4.3158756E1,7.622307E0,5.381066E0,7.2429016E1,1.4534464E1,5.3857628E1,1.8335026E1,3.727138E1,5.7127686E0,3.1110587E2,1.5461949E2,2.0394545E2,7.7852583E0,1.0311981E2,8.593376E1,1.0593399E2,6.2083282E1],"tree_param":{"num_deleted":"0","num_feature":"8","num_nodes":"59","size_leaf_vector":"1"}},{"base_weights":[8.796749E-3,-8.7725747E-1,6.5803224E-1,-1.0602832E0,-4.868131E-1,-1.649548E-1,8.154181E-1,-4.6947458E-1,-1.1150705E0,-1.0873492E0,-1.8738554E-1,-5.321455E-1,9.454728E-1,1.004759E0,3.833428E-1,9.322168E-2,-6.351097E-2,-1.2015774E0,-9.558856E-1,-4.5695147E-1,-1.1738179E0,-4.6786624E-1,3.7203065E-1,-2.2251412E-2,-8.9518183E-1,1.08102E0,1.7360078E-2,1.0899801E0,8.0890304E-1,7.363102E-2,7.912883E-1,-1.3943061E-2,4.028331E-2,-6.565998E-2,-4.8263825E-2,-3.3981342E-2,-6.43815E-2,4.825962E-3,-4.103498E-2,-3.815257E-2,-6.420595E-2,-6.385889E-2,-1.183878E-2,3.3365056E-2,-4.4981625E-2,-1.0151523E-2,3.754298E-2,-3.4603294E-2,-6.654147E-2,5.830725E-2,2.6559157E-2,5.059908E-2,6.331956E-2,-1.2731359E-3,4.9313832E-2,1.1983203E-2,-3.5837285E-2,2.8250298E-2,6.543068E-2],"categories":[],"categories_nodes":[],"categories_segments":[],"categories_sizes":[],"default_left":[0,0,0,0,0,0,0,0,0,0,0,0,0,0,0,0,0,0,0,0,0,0,0,0,0,0,0,0,0,0,0,0,0,0,0,0,0,0,0,0,0,0,0,0,0,0,0,0,0,0,0,0,0,0,0,0,0,0,0],"id":12,"left_children":[1,3,5,7,9,11,13,15,17,19,21,23,25,27,29,31,-1,33,35,37,39,41,43,45,47,49,-1,51,53,55,57,-1,-1,-1,-1,-1,-1,-1,-1,-1,-1,-1,-1,-1,-1,-1,-1,-1,-1,-1,-1,-1,-1,-1,-1,-1,-1,-1,-1],"loss_changes":[1.2273057E3,6.379834E1,1.5969446E2,1.9166626E1,5.1806725E1,8.13611E1,8.406372E1,2.4531393E1,6.3511353E0,4.541664E0,3.0748802E1,2.7620064E1,3.5039139E0,1.0914978E1,3.988371E1,8.899515E0,0E0,7.9661255E0,1.7493225E1,2.844258E0,2.6111374E0,2.3917173E1,2.5167856E1,8.964776E0,6.6075974E0,1.0749207E0,0E0,5.331604E0,3.297162E1,2.392026E1,1.5050255E1,0E0,0E0,0E0,0E0,0E0,0E0,0E0,0E0,0E0,0E0,0E0,0E0,0E0,0E0,0E0,0E0,0E0,0E0,0E0,0E0,0E0,0E0,0E0,0E0,0E0,0E0,0E0,0E0],"parents":[2147483647,0,0,1,1,2,2,3,3,4,4,5,5,6,6,7,7,8,8,9,9,10,10,11,11,12,12,13,13,14,14,15,15,17,17,18,18,19,19,20,20,21,21,22,22,23,23,24,24,25,25,27,27,28,28,29,29,30,30],"right_children":[2,4,6,8,10,12,14,16,18,20,22,24,26,28,30,32,-1,34,36,38,40,42,44,46,48,50,-1,52,54,56,58,-1,-1,-1,-1,-1,-1,-1,-1,-1,-1,-1,-1,-1,-1,-1,-1,-1,-1,-1,-1,-1,-1,-1,-1,-1,-1,-1,-1],"split_conditions":[1E0,6E0,7.28777E1,7.14E0,2.7157E2,3.8054E2,1.681E2,2E0,2.907E2,7.14E0,2.097E2,6.4E-1,4.285E2,1.19E0,6E0,4.32E0,-6.351097E-2,3.8054E2,6.78E0,4.31E1,5E-1,4.7014E2,8.17E0,6E0,1.81E0,5.13E0,1.7360078E-2,6E0,4.32E0,5E0,1.4343E2,-1.3943061E-2,4.028331E-2,-6.565998E-2,-4.8263825E-2,-3.3981342E-2,-6.43815E-2,4.825962E-3,-4.103498E-2,-3.815257E-2,-6.420595E-2,-6.385889E-2,-1.183878E-2,3.3365056E-2,-4.4981625E-2,-1.0151523E-2,3.754298E-2,-3.4603294E-2,-6.654147E-2,5.830725E-2,2.6559157E-2,5.059908E-2,6.331956E-2,-1.2731359E-3,4.9313832E-2,1.1983203E-2,-3.5837285E-2,2.8250298E-2,6.543068E-2],"split_indices":[2,7,4,1,1,1,5,7,5,1,5,6,5,6,7,1,0,1,6,5,6,1,6,7,6,6,0,7,1,7,1,0,0,0,0,0,0,0,0,0,0,0,0,0,0,0,0,0,0,0,0,0,0,0,0,0,0,0,0],"split_type":[0,0,0,0,0,0,0,0,0,0,0,0,0,0,0,0,0,0,0,0,0,0,0,0,0,0,0,0,0,0,0,0,0,0,0,0,0,0,0,0,0,0,0,0,0,0,0,0,0,0,0,0,0,0,0,0,0,0,0],"sum_hessian":[2.1315227E3,9.011538E2,1.2303689E3,6.122038E2,2.8895E2,1.9740967E2,1.0329592E3,5.2920486E1,5.592833E2,9.5150154E1,1.9379987E2,1.4881206E2,4.8597607E1,7.171418E2,3.158174E2,3.152562E1,2.1394865E1,3.577127E2,2.0157062E2,1.23745985E1,8.277555E1,1.2930913E2,6.449074E1,6.244424E1,8.636782E1,3.882677E1,9.770836E0,4.9617117E2,2.209706E2,1.803338E2,1.3548361E2,2.10173E1,1.050832E1,2.3956714E2,1.1814556E2,1.1181077E2,8.975986E1,5.0898066E0,7.284792E0,1.9390177E1,6.3385376E1,2.762013E1,1.01688995E2,5.2787724E1,1.1703015E1,5.1312424E1,1.1131817E1,6.0826336E1,2.5541487E1,3.249342E1,6.33335E0,3.4911606E2,1.4705511E2,3.879088E1,1.8217972E2,1.4970818E2,3.0625635E1,9.5845474E1,3.963813E1],"tree_param":{"num_deleted":"0","num_feature":"8","num_nodes":"59","size_leaf_vector":"1"}},{"base_weights":[-3.2716822E-3,-8.8021827E-1,6.224983E-1,-1.123467E0,-7.1692854E-1,-1.2819651E-1,7.749853E-1,-6.62783E-2,-8.5770565E-1,-9.865013E-1,-5.411652E-1,-4.7972494E-1,9.0454865E-1,9.5255536E-1,3.183333E-1,-6.542218E-1,-6.574656E-2,-3.783105E-2,-1.1666653E0,-3.9739805E-1,-1.2278666E0,-1.6832083E-1,-9.6506333E-1,1.0116494E0,-0E0,9.696658E-1,-1.08652644E-1,1.1272389E-1,8.8704616E-1,-1.7554324E-2,-4.4856872E-2,1.216607E-2,-9.661248E-3,-6.0683828E-2,-2.1631857E-2,-2.8940765E-2,2.9283545E-5,-4.166885E-2,-6.558164E-2,-2.3348497E-4,-5.005877E-2,-1.7110137E-2,-5.607562E-2,5.343118E-2,3.0042429E-2,4.412559E-2,6.0519755E-2,-4.2646002E-2,2.531114E-2,2.0313485E-2,-4.3584555E-2,5.5070084E-2,-2.5303105E-2],"categories":[],"categories_nodes":[],"categories_segments":[],"categories_sizes":[],"default_left":[0,0,0,0,0,0,0,0,0,0,0,0,0,0,0,0,0,0,0,0,0,0,0,0,0,0,0,0,0,0,0,0,0,0,0,0,0,0,0,0,0,0,0,0,0,0,0,0,0,0,0,0,0],"id":13,"left_children":[1,3,5,7,9,11,13,-1,15,17,19,21,23,25,27,29,-1,31,33,35,37,39,41,43,-1,45,47,49,51,-1,-1,-1,-1,-1,-1,-1,-1,-1,-1,-1,-1,-1,-1,-1,-1,-1,-1,-1,-1,-1,-1,-1,-1],"loss_changes":[1.1570249E3,3.3886353E1,1.4100052E2,1.7478882E1,2.434845E1,7.607298E1,8.251068E1,0E0,1.331916E1,3.5231873E1,3.1166603E1,2.3339771E1,5.159416E0,1.3552185E1,3.3481274E1,7.591976E0,0E0,1.535106E0,5.3119354E0,1.9414333E1,5.162506E-1,1.3050049E1,5.3881645E0,3.0467606E-1,0E0,1.3919434E1,6.1787043E0,6.1809208E1,2.3374706E1,0E0,0E0,0E0,0E0,0E0,0E0,0E0,0E0,0E0,0E0,0E0,0E0,0E0,0E0,0E0,0E0,0E0,0E0,0E0,0E0,0E0,0E0,0E0,0E0],"parents":[2147483647,0,0,1,1,2,2,3,3,4,4,5,5,6,6,8,8,9,9,10,10,11,11,12,12,13,13,14,14,15,15,17,17,18,18,19,19,20,20,21,21,22,22,23,23,25,25,26,26,27,27,28,28],"right_children":[2,4,6,8,10,12,14,-1,16,18,20,22,24,26,28,30,-1,32,34,36,38,40,42,44,-1,46,48,50,52,-1,-1,-1,-1,-1,-1,-1,-1,-1,-1,-1,-1,-1,-1,-1,-1,-1,-1,-1,-1,-1,-1,-1,-1],"split_conditions":[1E0,7.28777E1,7.28777E1,3.8054E2,1.4343E2,3.8054E2,1.794E2,-6.62783E-2,7.31E0,5.11E1,7.93E0,1.06E0,6.46E0,8.38E0,1.4343E2,3.451E2,-6.574656E-2,1.4E-1,8.83639E1,5.36E1,4.073E2,1.278E2,2.37E1,5.13E0,-0E0,9.17362E1,9.32E1,1.66E0,8.57E0,-1.7554324E-2,-4.4856872E-2,1.216607E-2,-9.661248E-3,-6.0683828E-2,-2.1631857E-2,-2.8940765E-2,2.9283545E-5,-4.166885E-2,-6.558164E-2,-2.3348497E-4,-5.005877E-2,-1.7110137E-2,-5.607562E-2,5.343118E-2,3.0042429E-2,4.412559E-2,6.0519755E-2,-4.2646002E-2,2.531114E-2,2.0313485E-2,-4.3584555E-2,5.5070084E-2,-2.5303105E-2],"split_indices":[2,4,4,1,1,1,5,0,6,5,6,6,6,6,1,5,0,6,4,5,5,5,5,6,0,4,5,6,6,0,0,0,0,0,0,0,0,0,0,0,0,0,0,0,0,0,0,0,0,0,0,0,0],"split_type":[0,0,0,0,0,0,0,0,0,0,0,0,0,0,0,0,0,0,0,0,0,0,0,0,0,0,0,0,0,0,0,0,0,0,0,0,0,0,0,0,0,0,0,0,0,0,0,0,0,0,0,0,0],"sum_hessian":[2.1063635E3,8.770414E2,1.2293221E3,3.4966345E2,5.273779E2,2.0746649E2,1.02185565E3,1.9614236E2,1.5352109E2,2.0609825E2,3.212797E2,1.552533E2,5.22132E1,7.348161E2,2.8703955E2,1.0807355E2,4.544754E1,3.3175354E1,1.729229E2,2.6708698E2,5.419272E1,9.5519005E1,5.97343E1,4.6583794E1,5.629407E0,7.2333386E2,1.1482234E1,2.1182979E2,7.520977E1,4.9348434E1,5.8725117E1,1.1378678E1,2.1796677E1,1.617724E2,1.1150494E1,1.8331941E2,8.376756E1,1.161859E1,4.2574127E1,8.077321E1,1.4745795E1,1.2760045E1,4.697425E1,3.9289906E1,7.293885E0,5.347966E2,1.8853726E2,5.0929885E0,6.3892455E0,1.6370343E2,4.8126354E1,6.542422E1,9.785553E0],"tree_param":{"num_deleted":"0","num_feature":"8","num_nodes":"53","size_leaf_vector":"1"}},{"base_weights":[-3.3101619E-3,-7.0936394E-1,2.4792567E-1,-9.0301716E-1,-3.6549917E-1,4.946809E-1,-1.9814019E-1,-6.3261646E-1,-1.118945E0,-3.218175E-2,-1.1959143E0,3.5577872E-1,9.9827576E-1,-4.7575355E-1,2.646117E-1,-5.148857E-1,-1.137419E0,-8.338888E-1,-6.2807485E-2,6.7094344E-1,-3.186874E-1,-3.1157702E-2,-1.2709416E0,5.981964E-1,-3.589742E-1,1.1073625E0,-4.4787332E-1,-8.302977E-2,-7.1163636E-1,-8.335677E-2,8.761607E-1,-1.3698414E-2,-3.893352E-2,-3.9773297E-2,-6.647221E-2,-2.4610484E-2,-5.709083E-2,3.8570184E-2,4.524303E-3,-3.8782418E-2,3.0798182E-2,-6.695523E-2,-3.4671884E-2,3.5698783E-2,2.180469E-2,-3.245282E-2,4.171258E-3,6.279418E-2,4.0890448E-2,-3.389458E-2,6.2597217E-4,1.4009428E-2,-3.6565118E-2,-5.1065948E-2,-2.3074018E-2,1.5675498E-2,-3.749366E-2,5.198727E-2,-3.879368E-2],"categories":[],"categories_nodes":[],"categories_segments":[],"categories_sizes":[],"default_left":[0,0,0,0,0,0,0,0,0,0,0,0,0,0,0,0,0,0,0,0,0,0,0,0,0,0,0,0,0,0,0,0,0,0,0,0,0,0,0,0,0,0,0,0,0,0,0,0,0,0,0,0,0,0,0,0,0,0,0],"id":14,"left_children":[1,3,5,7,9,11,13,15,17,19,21,23,25,27,29,31,33,35,-1,37,39,-1,41,43,45,47,49,51,53,55,57,-1,-1,-1,-1,-1,-1,-1,-1,-1,-1,-1,-1,-1,-1,-1,-1,-1,-1,-1,-1,-1,-1,-1,-1,-1,-1,-1,-1],"loss_changes":[3.702034E2,3.6018433E1,1.6952246E2,1.9526062E1,5.4977768E1,6.885065E1,7.063573E1,8.621624E0,6.2858276E0,2.9039036E1,1.465622E0,1.3516159E2,3.4258377E1,3.1677032E1,4.404241E1,7.93454E0,6.235008E-1,6.2051506E0,0E0,2.275484E0,4.4300007E1,0E0,8.0615234E-1,1.049585E1,2.5486572E1,7.322159E0,1.7302105E0,3.089988E1,1.5980194E1,3.526467E1,2.1098373E1,0E0,0E0,0E0,0E0,0E0,0E0,0E0,0E0,0E0,0E0,0E0,0E0,0E0,0E0,0E0,0E0,0E0,0E0,0E0,0E0,0E0,0E0,0E0,0E0,0E0,0E0,0E0,0E0],"parents":[2147483647,0,0,1,1,2,2,3,3,4,4,5,5,6,6,7,7,8,8,9,9,10,10,11,11,12,12,13,13,14,14,15,15,16,16,17,17,19,19,20,20,22,22,23,23,24,24,25,25,26,26,27,27,28,28,29,29,30,30],"right_children":[2,4,6,8,10,12,14,16,18,20,22,24,26,28,30,32,34,36,-1,38,40,-1,42,44,46,48,50,52,54,56,58,-1,-1,-1,-1,-1,-1,-1,-1,-1,-1,-1,-1,-1,-1,-1,-1,-1,-1,-1,-1,-1,-1,-1,-1,-1,-1,-1,-1],"split_conditions":[7.28777E1,3.8054E2,1.774E2,8.5E-1,6.62E0,9.17362E1,6E0,1.278E2,3.82E1,1E0,1E0,1.32E0,8.57E0,1.23E0,1.4343E2,3E0,1E0,1.58E0,-6.2807485E-2,4.285E2,6E0,-3.1157702E-2,6E0,3E0,6E0,2E0,1.262E2,2E0,1.4343E2,1.38E0,1.044E1,-1.3698414E-2,-3.893352E-2,-3.9773297E-2,-6.647221E-2,-2.4610484E-2,-5.709083E-2,3.8570184E-2,4.524303E-3,-3.8782418E-2,3.0798182E-2,-6.695523E-2,-3.4671884E-2,3.5698783E-2,2.180469E-2,-3.245282E-2,4.171258E-3,6.279418E-2,4.0890448E-2,-3.389458E-2,6.2597217E-4,1.4009428E-2,-3.6565118E-2,-5.1065948E-2,-2.3074018E-2,1.5675498E-2,-3.749366E-2,5.198727E-2,-3.879368E-2],"split_indices":[4,1,5,6,6,4,7,5,5,7,7,6,6,6,1,7,7,6,0,5,7,0,7,7,7,7,5,7,1,6,6,0,0,0,0,0,0,0,0,0,0,0,0,0,0,0,0,0,0,0,0,0,0,0,0,0,0,0,0],"split_type":[0,0,0,0,0,0,0,0,0,0,0,0,0,0,0,0,0,0,0,0,0,0,0,0,0,0,0,0,0,0,0,0,0,0,0,0,0,0,0,0,0,0,0,0,0,0,0,0,0,0,0,0,0,0,0,0,0,0,0],"sum_hessian":[2.0847417E3,5.4675586E2,1.537986E3,3.485482E2,1.9820769E2,9.9029083E2,5.4769507E2,1.5670436E2,1.9184383E2,1.42264E2,5.5943684E1,7.7769183E2,2.1259897E2,3.424444E2,2.0525069E2,1.2886772E2,2.7836634E1,6.487213E1,1.26971695E2,4.0697E1,1.0156701E2,7.711621E0,4.8232063E1,5.809561E2,1.9673576E2,1.9796907E2,1.4629898E1,1.291677E2,2.1327672E2,1.312629E2,7.3987785E1,6.8616875E1,6.025085E1,1.2046977E1,1.5789657E1,3.2136463E1,3.273567E1,3.4265415E1,6.431582E0,6.8401764E1,3.3165245E1,4.180578E1,6.4262853E0,3.3655536E2,2.4440074E2,1.1867754E2,7.805821E1,1.284172E2,6.955187E1,9.585595E0,5.044303E0,8.304964E1,4.6118053E1,9.3743614E1,1.19533104E2,8.251202E1,4.8750885E1,6.77139E1,6.2738853E0],"tree_param":{"num_deleted":"0","num_feature":"8","num_nodes":"59","size_leaf_vector":"1"}},{"base_weights":[2.7776717E-3,-3.6838925E-1,4.7502932E-1,-5.9370816E-1,1.481182E-1,3.2148314E-1,9.529294E-1,-2.8896195E-1,-9.514512E-1,-3.745926E-1,4.1181624E-1,4.8730516E-1,-1.0908011E0,1.056116E0,-3.0548632E-1,-6.0494727E-1,4.6231937E-1,-1.2636079E0,-6.6017824E-1,-7.7866465E-1,3.7878177E-1,-2.4875383E-1,6.6785246E-1,6.0899436E-1,5.5749785E-2,-6.313368E-1,-1.3385807E0,6.2244654E-2,7.089154E-1,-8.196678E-3,-4.0299658E-2,-9.047119E-3,-4.6321508E-2,3.189353E-2,-2.1710737E-2,-5.0848372E-2,-6.5318085E-2,-1.1213932E-2,-4.951581E-2,-1.6879642E-2,-4.7900613E-2,3.224175E-2,-4.5059692E-2,1.8849472E-2,-4.12715E-2,4.3345187E-2,-7.7404524E-3,3.9972585E-2,2.5371203E-2,9.332223E-3,-2.3065936E-2,-3.9131634E-2,-1.8502068E-2,-7.988834E-2,-5.6042053E-2,1.2881477E-2,6.401118E-2,-1.776205E-2,1.5434377E-2],"categories":[],"categories_nodes":[],"categories_segments":[],"categories_sizes":[],"default_left":[0,0,0,0,0,0,0,0,0,0,0,0,0,0,0,0,0,0,0,0,0,0,0,0,0,0,0,0,0,0,0,0,0,0,0,0,0,0,0,0,0,0,0,0,0,0,0,0,0,0,0,0,0,0,0,0,0,0,0],"id":15,"left_children":[1,3,5,7,9,11,13,15,17,19,21,23,25,27,29,31,33,35,37,39,41,43,45,47,49,51,53,-1,55,57,-1,-1,-1,-1,-1,-1,-1,-1,-1,-1,-1,-1,-1,-1,-1,-1,-1,-1,-1,-1,-1,-1,-1,-1,-1,-1,-1,-1,-1],"loss_changes":[3.592468E2,1.3366856E2,6.57567E1,8.673547E1,4.8288074E1,1.6073807E2,2.8792923E1,1.0312785E2,3.2348206E1,3.609882E1,3.9563904E1,3.210199E1,7.172432E0,1.2188126E1,2.4822774E0,4.1358185E1,2.0556925E1,2.9421997E-1,2.7307487E1,5.628826E0,1.4722164E1,2.4034603E1,2.7728401E1,8.711243E0,9.273984E0,6.7489624E-1,5.243759E-1,0E0,1.8542923E1,1.4309863E0,0E0,0E0,0E0,0E0,0E0,0E0,0E0,0E0,0E0,0E0,0E0,0E0,0E0,0E0,0E0,0E0,0E0,0E0,0E0,0E0,0E0,0E0,0E0,0E0,0E0,0E0,0E0,0E0,0E0],"parents":[2147483647,0,0,1,1,2,2,3,3,4,4,5,5,6,6,7,7,8,8,9,9,10,10,11,11,12,12,13,13,14,14,15,15,16,16,17,17,18,18,19,19,20,20,21,21,22,22,23,23,24,24,25,25,26,26,28,28,29,29],"right_children":[2,4,6,8,10,12,14,16,18,20,22,24,26,28,30,32,34,36,38,40,42,44,46,48,50,52,54,-1,56,58,-1,-1,-1,-1,-1,-1,-1,-1,-1,-1,-1,-1,-1,-1,-1,-1,-1,-1,-1,-1,-1,-1,-1,-1,-1,-1,-1,-1,-1],"split_conditions":[7.7209E1,6E0,9.17362E1,4E0,7.28777E1,1.78E0,8.57E0,3.8054E2,3.36844E1,3.8054E2,1.4343E2,1.05E0,2.02E0,2E0,1.145E1,9E-1,5.04E0,1.7E-1,2.9474E2,5E-1,6.78E0,1E0,6.29E0,4.32E0,1.536E1,6E0,2.61445E1,6.2244654E-2,5E0,9.95E0,-4.0299658E-2,-9.047119E-3,-4.6321508E-2,3.189353E-2,-2.1710737E-2,-5.0848372E-2,-6.5318085E-2,-1.1213932E-2,-4.951581E-2,-1.6879642E-2,-4.7900613E-2,3.224175E-2,-4.5059692E-2,1.8849472E-2,-4.12715E-2,4.3345187E-2,-7.7404524E-3,3.9972585E-2,2.5371203E-2,9.332223E-3,-2.3065936E-2,-3.9131634E-2,-1.8502068E-2,-7.988834E-2,-5.6042053E-2,1.2881477E-2,6.401118E-2,-1.776205E-2,1.5434377E-2],"split_indices":[4,7,4,7,4,6,6,1,3,1,1,6,6,7,6,6,6,6,1,6,6,6,6,1,1,7,3,0,7,6,0,0,0,0,0,0,0,0,0,0,0,0,0,0,0,0,0,0,0,0,0,0,0,0,0,0,0,0,0],"split_type":[0,0,0,0,0,0,0,0,0,0,0,0,0,0,0,0,0,0,0,0,0,0,0,0,0,0,0,0,0,0,0,0,0,0,0,0,0,0,0,0,0,0,0,0,0,0,0,0,0,0,0,0,0,0,0,0,0,0,0],"sum_hessian":[2.0474514E3,1.146425E3,9.0102637E2,7.982459E2,3.4817914E2,6.833518E2,2.1767455E2,4.3217844E2,3.6606744E2,1.16483E2,2.3169614E2,6.12197E2,7.115478E1,2.0140048E2,1.6274065E1,3.044543E2,1.2772414E2,1.7492212E2,1.9114532E2,7.5882576E1,4.0600426E1,6.461868E1,1.6707745E2,4.7703946E2,1.3515756E2,2.6313164E1,4.4841618E1,1.2860365E2,7.279682E1,1.0972703E1,5.3013616E0,1.3210045E2,1.7235387E2,1.0714419E2,2.0579948E1,2.984961E1,1.4507251E2,8.323187E1,1.0791345E2,2.2930132E1,5.2952446E1,3.4089077E1,6.511349E0,3.10738E1,3.354488E1,1.345818E2,3.249565E1,1.6318716E2,3.138523E2,1.0851874E2,2.6638828E1,1.5158277E1,1.1154887E1,1.7369114E1,2.7472502E1,4.157892E1,3.1217907E1,5.329971E0,5.642732E0],"tree_param":{"num_deleted":"0","num_feature":"8","num_nodes":"59","size_leaf_vector":"1"}},{"base_weights":[-6.4943414E-3,-8.3148503E-1,5.852297E-1,-9.95527E-1,-4.8610228E-1,-8.2011335E-2,7.200785E-1,-4.8345286E-1,-1.0458014E0,-7.013702E-1,2.478956E-1,-3.7942567E-1,8.411712E-1,8.786095E-1,4.337919E-1,-0E0,-5.817057E-2,-1.1554335E0,-8.7570006E-1,-9.675922E-1,3.93162E-3,1.9917754E-2,3.2927513E-3,-4.9496058E-1,1.3619569E-1,5.2852035E-2,5.95915E-1,7.9286367E-1,1.078343E0,1.4924012E-1,8.0299157E-1,-2.022033E-2,2.2189999E-2,-6.1367806E-2,-4.8780054E-2,-1.6000982E-2,-4.7028333E-2,-5.5678796E-2,-2.830531E-2,-1.4681712E-2,-5.36349E-2,1.3758994E-2,-1.180643E-2,1.3260469E-2,4.264273E-2,3.5043754E-2,5.0034244E-2,6.1894782E-2,3.858685E-2,1.5377112E-2,-3.3709437E-2,3.3047713E-2,5.968676E-2],"categories":[],"categories_nodes":[],"categories_segments":[],"categories_sizes":[],"default_left":[0,0,0,0,0,0,0,0,0,0,0,0,0,0,0,0,0,0,0,0,0,0,0,0,0,0,0,0,0,0,0,0,0,0,0,0,0,0,0,0,0,0,0,0,0,0,0,0,0,0,0,0,0],"id":16,"left_children":[1,3,5,7,9,11,13,15,17,19,21,23,25,27,29,31,-1,33,35,37,-1,-1,-1,39,41,-1,43,45,47,49,51,-1,-1,-1,-1,-1,-1,-1,-1,-1,-1,-1,-1,-1,-1,-1,-1,-1,-1,-1,-1,-1,-1],"loss_changes":[9.8467535E2,4.7103455E1,1.0580136E2,1.4017517E1,4.342713E1,5.470161E1,4.3841675E1,1.7430408E1,8.44635E0,4.4148323E1,1.6432078E0,9.080988E0,1.7742004E0,9.709442E0,3.6606895E1,5.9179525E0,0E0,2.6118164E0,7.053299E0,8.467026E0,0E0,0E0,0E0,1.3912014E1,1.5287905E0,0E0,1.8056974E0,7.604065E0,7.914917E0,2.6152266E1,7.4713287E0,0E0,0E0,0E0,0E0,0E0,0E0,0E0,0E0,0E0,0E0,0E0,0E0,0E0,0E0,0E0,0E0,0E0,0E0,0E0,0E0,0E0,0E0],"parents":[2147483647,0,0,1,1,2,2,3,3,4,4,5,5,6,6,7,7,8,8,9,9,10,10,11,11,12,12,13,13,14,14,15,15,17,17,18,18,19,19,23,23,24,24,26,26,27,27,28,28,29,29,30,30],"right_children":[2,4,6,8,10,12,14,16,18,20,22,24,26,28,30,32,-1,34,36,38,-1,-1,-1,40,42,-1,44,46,48,50,52,-1,-1,-1,-1,-1,-1,-1,-1,-1,-1,-1,-1,-1,-1,-1,-1,-1,-1,-1,-1,-1,-1],"split_conditions":[1E0,6E0,7.28777E1,7.14E0,3.36844E1,3.8054E2,2.86139E1,2E0,3.36844E1,1E0,2.9474E2,6E0,1E0,2.61445E1,6E0,1E0,-5.817057E-2,3.8054E2,1E0,8.83639E1,3.93162E-3,1.9917754E-2,3.2927513E-3,3E0,2.7157E2,5.2852035E-2,6E0,6E0,2E0,5E0,1.4343E2,-2.022033E-2,2.2189999E-2,-6.1367806E-2,-4.8780054E-2,-1.6000982E-2,-4.7028333E-2,-5.5678796E-2,-2.830531E-2,-1.4681712E-2,-5.36349E-2,1.3758994E-2,-1.180643E-2,1.3260469E-2,4.264273E-2,3.5043754E-2,5.0034244E-2,6.1894782E-2,3.858685E-2,1.5377112E-2,-3.3709437E-2,3.3047713E-2,5.968676E-2],"split_indices":[2,7,4,1,3,1,3,7,3,0,1,7,7,3,7,7,0,1,7,4,0,0,0,7,1,0,7,7,7,7,1,0,0,0,0,0,0,0,0,0,0,0,0,0,0,0,0,0,0,0,0,0,0],"split_type":[0,0,0,0,0,0,0,0,0,0,0,0,0,0,0,0,0,0,0,0,0,0,0,0,0,0,0,0,0,0,0,0,0,0,0,0,0,0,0,0,0,0,0,0,0,0,0,0,0,0,0,0,0],"sum_hessian":[2.0150404E3,8.4153015E2,1.1735104E3,5.6907294E2,2.7245715E2,1.9723387E2,9.762765E2,5.200249E1,5.170705E2,2.1081094E2,6.164622E1,1.4970268E2,4.7531193E1,6.2677954E2,3.4949692E2,3.097225E1,2.1030241E1,3.105423E2,2.0652818E2,1.5708434E2,5.3726616E1,3.2799393E1,2.884683E1,1.22490364E2,2.7212317E1,2.330283E1,2.4228363E1,4.4234897E2,1.8443057E2,1.9832092E2,1.5117601E2,1.6244688E1,1.4727563E1,2.1726703E2,9.327526E1,2.2370045E1,1.8415814E2,1.1371417E2,4.337016E1,9.2083145E1,3.040722E1,2.0201017E1,7.0112996E0,1.1652225E1,1.25761385E1,3.0999048E2,1.3235847E2,1.1909304E2,6.533753E1,1.6696942E2,3.1351496E1,1.13034744E2,3.8141262E1],"tree_param":{"num_deleted":"0","num_feature":"8","num_nodes":"53","size_leaf_vector":"1"}},{"base_weights":[-1.5742638E-3,-6.6805434E-1,2.3183283E-1,-8.450328E-1,-3.6074233E-1,4.249569E-1,-1.6729333E-1,-5.529464E-1,-1.082816E0,-5.697588E-2,-1.0930246E0,3.053056E-1,8.9918035E-1,-9.6217625E-2,-6.646472E-2,-3.3839867E-1,-8.897543E-1,-8.002958E-1,-6.1150998E-2,3.2116452E-1,-2.2570436E-1,-7.241917E-1,-6.1707754E-2,5.163499E-1,-3.2993275E-1,9.95454E-1,-3.108854E-1,-3.4999672E-1,3.2083744E-1,-2.9198548E-2,-7.90837E-3,-3.5228144E-2,-5.349536E-2,-7.1040257E-3,-4.537546E-2,2.3716725E-2,-1.4144589E-2,-8.098146E-3,-3.798427E-2,-1.3451653E-2,-4.7948148E-2,3.42003E-2,1.9685479E-2,-3.5671044E-2,-3.173568E-3,5.448215E-2,4.452292E-2,-2.9715246E-2,9.711886E-3,-4.087634E-3,-4.8442073E-2,3.575422E-2,-1.1709897E-2],"categories":[],"categories_nodes":[],"categories_segments":[],"categories_sizes":[],"default_left":[0,0,0,0,0,0,0,0,0,0,0,0,0,0,0,0,0,0,0,0,0,0,0,0,0,0,0,0,0,0,0,0,0,0,0,0,0,0,0,0,0,0,0,0,0,0,0,0,0,0,0,0,0],"id":17,"left_children":[1,3,5,7,9,11,13,15,17,19,21,23,25,27,-1,29,31,33,-1,35,37,39,-1,41,43,45,47,49,51,-1,-1,-1,-1,-1,-1,-1,-1,-1,-1,-1,-1,-1,-1,-1,-1,-1,-1,-1,-1,-1,-1,-1,-1],"loss_changes":[3.1047815E2,2.7731613E1,1.1401246E2,2.1988373E1,4.2341106E1,5.6142807E1,3.9576004E1,1.0359737E1,5.9225006E0,8.756233E0,1.8197327E0,1.0708326E2,2.3685577E1,4.8358112E1,0E0,3.9476461E0,9.7958374E-1,4.1844597E0,0E0,4.064144E0,3.0177226E0,1.5516119E0,0E0,1.1939407E1,2.0245646E1,6.67572E-1,2.3644395E0,4.6960617E1,3.8029465E1,0E0,0E0,0E0,0E0,0E0,0E0,0E0,0E0,0E0,0E0,0E0,0E0,0E0,0E0,0E0,0E0,0E0,0E0,0E0,0E0,0E0,0E0,0E0,0E0],"parents":[2147483647,0,0,1,1,2,2,3,3,4,4,5,5,6,6,7,7,8,8,9,9,10,10,11,11,12,12,13,13,15,15,16,16,17,17,19,19,20,20,21,21,23,23,24,24,25,25,26,26,27,27,28,28],"right_children":[2,4,6,8,10,12,14,16,18,20,22,24,26,28,-1,30,32,34,-1,36,38,40,-1,42,44,46,48,50,52,-1,-1,-1,-1,-1,-1,-1,-1,-1,-1,-1,-1,-1,-1,-1,-1,-1,-1,-1,-1,-1,-1,-1,-1],"split_conditions":[7.28777E1,3.8054E2,1.916E2,8.6E-1,6.46E0,9.17362E1,1.107E1,9.86E1,3.82E1,3.01E2,7.93E0,1.38E0,8.57E0,1.4343E2,-6.646472E-2,1.2E-1,1.278E2,1.06E0,-6.1150998E-2,4.14E0,4.738E2,3.58E2,-6.1707754E-2,1.536E1,1E0,1.93E1,1.262E2,1.66E0,5.21E0,-2.9198548E-2,-7.90837E-3,-3.5228144E-2,-5.349536E-2,-7.1040257E-3,-4.537546E-2,2.3716725E-2,-1.4144589E-2,-8.098146E-3,-3.798427E-2,-1.3451653E-2,-4.7948148E-2,3.42003E-2,1.9685479E-2,-3.5671044E-2,-3.173568E-3,5.448215E-2,4.452292E-2,-2.9715246E-2,9.711886E-3,-4.087634E-3,-4.8442073E-2,3.575422E-2,-1.1709897E-2],"split_indices":[4,1,5,6,6,4,6,5,5,5,6,6,6,1,0,6,5,6,0,6,5,5,0,1,0,5,5,6,6,0,0,0,0,0,0,0,0,0,0,0,0,0,0,0,0,0,0,0,0,0,0,0,0],"split_type":[0,0,0,0,0,0,0,0,0,0,0,0,0,0,0,0,0,0,0,0,0,0,0,0,0,0,0,0,0,0,0,0,0,0,0,0,0,0,0,0,0,0,0,0,0,0,0,0,0,0,0,0,0],"sum_hessian":[1.9935826E3,5.1671106E2,1.4768715E3,3.2656808E2,1.90143E2,9.9541077E2,4.8146075E2,1.4823108E2,1.7833699E2,1.3525195E2,5.4891056E1,7.963408E2,1.9906996E2,4.548104E2,2.6650364E1,9.195627E1,5.6274815E1,6.161002E1,1.16726974E2,4.126843E1,9.398352E1,1.7083818E1,3.7807236E1,5.980096E2,1.9833125E2,1.8463988E2,1.4430075E1,2.8300293E2,1.7180745E2,3.7739594E1,5.4216675E1,3.0444666E1,2.5830149E1,9.086033E0,5.2523987E1,3.322412E1,8.04431E0,8.5292694E1,8.690826E0,6.6884956E0,1.0395322E1,2.5036046E2,3.476491E2,8.046881E1,1.1786245E2,9.188327E1,9.2756615E1,9.257309E0,5.172766E0,1.9832904E2,8.467388E1,1.0039075E2,7.141671E1],"tree_param":{"num_deleted":"0","num_feature":"8","num_nodes":"53","size_leaf_vector":"1"}},{"base_weights":[1.0355813E-2,-7.638708E-1,5.653468E-1,-9.2684704E-1,-4.2879987E-1,-3.7932917E-2,6.8654525E-1,-4.100134E-1,-9.7888076E-1,-9.9485064E-1,-1.513939E-1,-3.424166E-1,9.2977345E-1,7.9006E-1,2.7967897E-1,7.5981684E-2,-5.9417587E-2,-1.0927271E0,-8.1050074E-1,-5.056352E-1,-5.8222592E-2,-3.5423383E-1,2.5346312E-1,-1.5375494E-2,-8.771119E-1,5.4140992E-2,1.9163107E-2,9.274605E-1,5.8832705E-1,-1.2599134E-1,9.1402227E-1,-1.2285263E-2,3.5496708E-2,-5.871761E-2,-4.488777E-2,-2.1748321E-2,-5.5260528E-2,-6.516013E-3,-4.2477004E-2,-3.5903893E-2,1.9095745E-3,3.0269502E-2,-2.5903104E-2,-7.052142E-3,2.876143E-2,-3.4676936E-2,-6.3872315E-2,4.231017E-2,5.4776847E-2,1.7408917E-2,5.2567698E-2,2.0006262E-2,-3.4467664E-2,5.2584168E-2,-4.405793E-2],"categories":[],"categories_nodes":[],"categories_segments":[],"categories_sizes":[],"default_left":[0,0,0,0,0,0,0,0,0,0,0,0,0,0,0,0,0,0,0,0,0,0,0,0,0,0,0,0,0,0,0,0,0,0,0,0,0,0,0,0,0,0,0,0,0,0,0,0,0,0,0,0,0,0,0],"id":18,"left_children":[1,3,5,7,9,11,13,15,17,19,21,23,25,27,29,31,-1,33,35,37,-1,39,41,43,45,-1,-1,47,49,51,53,-1,-1,-1,-1,-1,-1,-1,-1,-1,-1,-1,-1,-1,-1,-1,-1,-1,-1,-1,-1,-1,-1,-1,-1],"loss_changes":[8.564868E2,4.4912506E1,8.498721E1,1.4488007E1,4.2820248E1,5.773197E1,4.0401245E1,2.0254032E1,8.639282E0,6.707062E0,1.5328402E1,2.5983685E1,3.3590126E0,2.0650635E1,5.1115482E1,7.051668E0,0E0,3.499237E0,2.2459076E1,3.0276756E0,0E0,1.7818113E1,1.7242254E1,6.9918666E0,3.0677986E0,0E0,0E0,5.108032E0,3.452803E1,3.631001E1,2.0072128E1,0E0,0E0,0E0,0E0,0E0,0E0,0E0,0E0,0E0,0E0,0E0,0E0,0E0,0E0,0E0,0E0,0E0,0E0,0E0,0E0,0E0,0E0,0E0,0E0],"parents":[2147483647,0,0,1,1,2,2,3,3,4,4,5,5,6,6,7,7,8,8,9,9,10,10,11,11,12,12,13,13,14,14,15,15,17,17,18,18,19,19,21,21,22,22,23,23,24,24,27,27,28,28,29,29,30,30],"right_children":[2,4,6,8,10,12,14,16,18,20,22,24,26,28,30,32,-1,34,36,38,-1,40,42,44,46,-1,-1,48,50,52,54,-1,-1,-1,-1,-1,-1,-1,-1,-1,-1,-1,-1,-1,-1,-1,-1,-1,-1,-1,-1,-1,-1,-1,-1],"split_conditions":[1E0,6E0,7.28777E1,7.14E0,2.7157E2,3.8054E2,3.01575E1,2E0,3.36844E1,5E-1,3.15204E1,1.06E0,5.13E0,9.2E-1,1.4343E2,4.32E0,-5.9417587E-2,3.8054E2,5.13E0,1.536E1,-5.8222592E-2,8.4292E2,6.18E0,6E0,2.24E0,5.4140992E-2,1.9163107E-2,6E0,9.17362E1,1E0,1.023E1,-1.2285263E-2,3.5496708E-2,-5.871761E-2,-4.488777E-2,-2.1748321E-2,-5.5260528E-2,-6.516013E-3,-4.2477004E-2,-3.5903893E-2,1.9095745E-3,3.0269502E-2,-2.5903104E-2,-7.052142E-3,2.876143E-2,-3.4676936E-2,-6.3872315E-2,4.231017E-2,5.4776847E-2,1.7408917E-2,5.2567698E-2,2.0006262E-2,-3.4467664E-2,5.2584168E-2,-4.405793E-2],"split_indices":[2,7,4,1,1,1,3,7,3,6,3,6,6,6,1,1,0,1,6,1,0,1,6,7,6,0,0,7,4,6,6,0,0,0,0,0,0,0,0,0,0,0,0,0,0,0,0,0,0,0,0,0,0,0,0],"split_type":[0,0,0,0,0,0,0,0,0,0,0,0,0,0,0,0,0,0,0,0,0,0,0,0,0,0,0,0,0,0,0,0,0,0,0,0,0,0,0,0,0,0,0,0,0,0,0,0,0,0,0,0,0,0,0],"sum_hessian":[1.9913137E3,8.3120496E2,1.1601088E3,5.578203E2,2.7338467E2,1.9405237E2,9.660564E2,5.2011272E1,5.0580902E2,8.894481E1,1.8443988E2,1.4817833E2,4.587404E1,7.6917554E2,1.9688086E2,3.2495167E1,1.9516108E1,2.98143E2,2.0766602E2,2.4074049E1,6.487076E1,1.23124535E2,6.1315346E1,9.269694E1,5.5481396E1,3.4928314E1,1.0945724E1,4.5510788E2,3.1406763E2,1.2047765E2,7.6403206E1,2.1858284E1,1.0636882E1,2.0625713E2,9.188587E1,9.25497E1,1.1511632E2,1.2309738E1,1.1764311E1,6.3590485E1,5.9534054E1,4.2344902E1,1.8970446E1,7.7200836E1,1.5496106E1,4.008337E1,1.5398025E1,3.1125845E2,1.4384943E2,2.08103E2,1.0596464E2,6.235622E1,5.8121437E1,7.139801E1,5.0051923E0],"tree_param":{"num_deleted":"0","num_feature":"8","num_nodes":"55","size_leaf_vector":"1"}},{"base_weights":[-9.3275664E-4,-6.122723E-1,2.1025503E-1,-7.953767E-1,-3.0161825E-1,4.322612E-1,-1.5493217E-1,-5.47628E-1,-1.0068609E0,-1.2139179E-3,-1.0696315E0,2.786388E-1,8.269655E-1,-4.158076E-1,2.712588E-1,-4.2662826E-1,-5.439314E-2,-5.1092166E-1,-1.0915247E0,5.792673E-1,-2.5287235E-1,-1.1632814E0,-2.0456564E-2,5.026986E-1,-3.4979174E-1,1.1013659E0,4.6451223E-1,-3.0735663E-1,-1.0685164E0,-2.9162385E-2,8.501085E-1,-1.0496705E-2,-3.2877576E-2,-5.627273E-3,-4.9015343E-2,-4.2593185E-2,-5.7675947E-2,4.238376E-3,3.5636406E-2,-3.3241622E-2,2.7080152E-2,-3.0919893E-2,-6.218558E-2,3.0678479E-2,1.6706115E-2,-8.330584E-3,-4.8537806E-2,5.783173E-2,1.8228294E-2,-1.0392604E-2,5.299597E-2,-5.8225566E-3,-4.582022E-2,-3.778377E-2,-6.496815E-2,1.4826426E-2,-3.4067422E-2,5.186608E-2,-1.0417989E-3],"categories":[],"categories_nodes":[],"categories_segments":[],"categories_sizes":[],"default_left":[0,0,0,0,0,0,0,0,0,0,0,0,0,0,0,0,0,0,0,0,0,0,0,0,0,0,0,0,0,0,0,0,0,0,0,0,0,0,0,0,0,0,0,0,0,0,0,0,0,0,0,0,0,0,0,0,0,0,0],"id":19,"left_children":[1,3,5,7,9,11,13,15,17,19,21,23,25,27,29,31,-1,33,35,37,39,41,-1,43,45,47,49,51,53,55,57,-1,-1,-1,-1,-1,-1,-1,-1,-1,-1,-1,-1,-1,-1,-1,-1,-1,-1,-1,-1,-1,-1,-1,-1,-1,-1,-1,-1],"loss_changes":[2.5110388E2,2.8057846E1,1.17262924E2,1.5713516E1,4.3038292E1,5.4184525E1,6.094076E1,8.976185E0,6.321884E0,1.9911875E1,2.613472E0,9.157295E1,2.43199E1,2.3589375E1,3.6302303E1,5.8640175E0,0E0,4.7358103E0,9.2900085E-1,2.5769014E0,3.1581678E1,1.0297089E0,0E0,8.651802E0,1.9180767E1,5.2129974E0,4.439785E1,3.3850784E1,2.2706947E0,2.9527395E1,1.1742779E1,0E0,0E0,0E0,0E0,0E0,0E0,0E0,0E0,0E0,0E0,0E0,0E0,0E0,0E0,0E0,0E0,0E0,0E0,0E0,0E0,0E0,0E0,0E0,0E0,0E0,0E0,0E0,0E0],"parents":[2147483647,0,0,1,1,2,2,3,3,4,4,5,5,6,6,7,7,8,8,9,9,10,10,11,11,12,12,13,13,14,14,15,15,17,17,18,18,19,19,20,20,21,21,23,23,24,24,25,25,26,26,27,27,28,28,29,29,30,30],"right_children":[2,4,6,8,10,12,14,16,18,20,22,24,26,28,30,32,-1,34,36,38,40,42,-1,44,46,48,50,52,54,56,58,-1,-1,-1,-1,-1,-1,-1,-1,-1,-1,-1,-1,-1,-1,-1,-1,-1,-1,-1,-1,-1,-1,-1,-1,-1,-1,-1,-1],"split_conditions":[7.28777E1,3.8054E2,1.681E2,8.6E-1,6.62E0,2.61445E1,6E0,1.278E2,2.31E1,1E0,6E0,1.38E0,2E0,7.76E0,1.4343E2,3E0,-5.439314E-2,1.5E0,3.82E1,1.47E0,6E0,1E0,-2.0456564E-2,3E0,4.34E0,1.558E2,6E0,5E0,1.075E1,1.41E0,7.93E0,-1.0496705E-2,-3.2877576E-2,-5.627273E-3,-4.9015343E-2,-4.2593185E-2,-5.7675947E-2,4.238376E-3,3.5636406E-2,-3.3241622E-2,2.7080152E-2,-3.0919893E-2,-6.218558E-2,3.0678479E-2,1.6706115E-2,-8.330584E-3,-4.8537806E-2,5.783173E-2,1.8228294E-2,-1.0392604E-2,5.299597E-2,-5.8225566E-3,-4.582022E-2,-3.778377E-2,-6.496815E-2,1.4826426E-2,-3.4067422E-2,5.186608E-2,-1.0417989E-3],"split_indices":[4,1,5,6,6,3,7,5,5,7,7,6,7,6,1,7,0,6,5,6,7,7,0,7,6,5,7,7,6,6,6,0,0,0,0,0,0,0,0,0,0,0,0,0,0,0,0,0,0,0,0,0,0,0,0,0,0,0,0],"split_type":[0,0,0,0,0,0,0,0,0,0,0,0,0,0,0,0,0,0,0,0,0,0,0,0,0,0,0,0,0,0,0,0,0,0,0,0,0,0,0,0,0,0,0,0,0,0,0,0,0,0,0,0,0,0,0,0,0,0,0],"sum_hessian":[1.9426133E3,4.9840912E2,1.4442042E3,3.1239584E2,1.8601328E2,8.982353E2,5.4596893E2,1.4573405E2,1.6666179E2,1.3452594E2,5.1487328E1,6.4799084E2,2.5024446E2,3.388281E2,2.0714082E2,1.2067952E2,2.5054525E1,2.5500746E1,1.4116104E2,4.0169914E1,9.435603E1,4.4294376E1,7.1929502E0,4.7794437E2,1.7004648E2,1.4110464E2,1.09139824E2,2.9194415E2,4.688395E1,1.3687828E2,7.026254E1,6.346617E1,5.721335E1,1.4579589E1,1.0921158E1,3.2371487E1,1.0878955E2,9.0441E0,3.1125814E1,6.2326736E1,3.2029293E1,6.974793E0,3.7319584E1,2.8636926E2,1.915751E2,1.3241449E2,3.763198E1,1.306024E2,1.0502244E1,5.148419E1,5.765563E1,2.2330484E2,6.863931E1,2.1905088E1,2.497886E1,9.1551155E1,4.5327126E1,5.7768707E1,1.24938345E1],"tree_param":{"num_deleted":"0","num_feature":"8","num_nodes":"59","size_leaf_vector":"1"}},{"base_weights":[1.3288898E-2,-7.4655247E-1,5.456404E-1,-9.4888574E-1,-6.255086E-1,-4.1424688E-2,6.669401E-1,-5.889545E-2,-6.7536515E-1,-4.061064E-1,-8.110439E-1,-2.981353E-1,7.7989197E-1,8.0693734E-1,2.733376E-1,-4.3967628E-1,-1.1370666E0,-4.6563495E-2,-7.747825E-1,-5.374685E-1,-1.1029415E0,-1.19959876E-1,-9.973503E-1,9.40834E-1,2.636138E-1,9.190489E-1,6.2236243E-1,7.751515E-2,7.5601274E-1,-5.577397E-3,-3.542482E-2,-3.838097E-2,-6.1266866E-2,-1.4351231E-2,1.4742254E-2,-2.8424636E-2,-5.7910033E-2,-1.6291836E-2,-4.583875E-2,-6.2266912E-2,-8.947718E-3,7.346698E-4,-4.066741E-2,-3.50956E-2,-6.1696555E-2,5.172963E-2,2.3431841E-2,2.0212617E-2,2.8237158E-3,5.2893616E-2,4.254723E-2,2.014661E-2,4.90759E-2,1.7780684E-2,-3.7443075E-2,4.641972E-2,-2.033947E-2],"categories":[],"categories_nodes":[],"categories_segments":[],"categories_sizes":[],"default_left":[0,0,0,0,0,0,0,0,0,0,0,0,0,0,0,0,0,0,0,0,0,0,0,0,0,0,0,0,0,0,0,0,0,0,0,0,0,0,0,0,0,0,0,0,0,0,0,0,0,0,0,0,0,0,0,0,0],"id":20,"left_children":[1,3,5,7,9,11,13,-1,15,17,19,21,23,25,27,29,31,33,35,37,39,41,43,45,47,49,51,53,55,-1,-1,-1,-1,-1,-1,-1,-1,-1,-1,-1,-1,-1,-1,-1,-1,-1,-1,-1,-1,-1,-1,-1,-1,-1,-1,-1,-1],"loss_changes":[7.8020056E2,1.8708893E1,8.0862366E1,1.750943E1,1.9918335E1,4.130487E1,5.1481537E1,0E0,1.4257038E1,3.0571045E1,2.0794052E1,1.83819E1,3.5057793E0,1.3611084E1,2.3334938E1,7.999365E0,3.4545135E-1,9.805074E0,8.194252E0,1.09305E1,1.666504E1,1.1325281E1,1.0434151E0,9.147606E-1,2.9867584E-1,2.9611206E0,2.0370277E1,4.1124443E1,1.4746624E1,0E0,0E0,0E0,0E0,0E0,0E0,0E0,0E0,0E0,0E0,0E0,0E0,0E0,0E0,0E0,0E0,0E0,0E0,0E0,0E0,0E0,0E0,0E0,0E0,0E0,0E0,0E0,0E0],"parents":[2147483647,0,0,1,1,2,2,3,3,4,4,5,5,6,6,8,8,9,9,10,10,11,11,12,12,13,13,14,14,15,15,16,16,17,17,18,18,19,19,20,20,21,21,22,22,23,23,24,24,25,25,26,26,27,27,28,28],"right_children":[2,4,6,8,10,12,14,-1,16,18,20,22,24,26,28,30,32,34,36,38,40,42,44,46,48,50,52,54,56,-1,-1,-1,-1,-1,-1,-1,-1,-1,-1,-1,-1,-1,-1,-1,-1,-1,-1,-1,-1,-1,-1,-1,-1,-1,-1,-1,-1],"split_conditions":[1E0,7.28777E1,7.28777E1,3.8054E2,7.43587E1,3.8054E2,1.916E2,-5.889545E-2,6.46E0,4.14E0,1.03E0,1.58E0,5.13E0,9.5E-1,1.4343E2,3.387E2,7.76E0,3.2E1,9.21E0,1.636E2,9.17362E1,1.278E2,2.24E0,4.073E2,6.29E0,4.1E0,9.17362E1,1.66E0,8.77E0,-5.577397E-3,-3.542482E-2,-3.838097E-2,-6.1266866E-2,-1.4351231E-2,1.4742254E-2,-2.8424636E-2,-5.7910033E-2,-1.6291836E-2,-4.583875E-2,-6.2266912E-2,-8.947718E-3,7.346698E-4,-4.066741E-2,-3.50956E-2,-6.1696555E-2,5.172963E-2,2.3431841E-2,2.0212617E-2,2.8237158E-3,5.2893616E-2,4.254723E-2,2.014661E-2,4.90759E-2,1.7780684E-2,-3.7443075E-2,4.641972E-2,-2.033947E-2],"split_indices":[2,4,4,1,4,1,5,0,6,6,6,6,6,6,1,5,6,5,6,5,4,5,6,5,6,5,4,6,6,0,0,0,0,0,0,0,0,0,0,0,0,0,0,0,0,0,0,0,0,0,0,0,0,0,0,0,0],"split_type":[0,0,0,0,0,0,0,0,0,0,0,0,0,0,0,0,0,0,0,0,0,0,0,0,0,0,0,0,0,0,0,0,0,0,0,0,0,0,0,0,0,0,0,0,0,0,0,0,0,0,0,0,0,0,0,0,0],"sum_hessian":[1.9268322E3,7.935641E2,1.1332682E3,2.941711E2,4.9939294E2,1.940313E2,9.392369E2,1.5811053E2,1.360606E2,2.3052116E2,2.6887177E2,1.484047E2,4.562659E1,6.918531E2,2.4738374E2,9.151367E1,4.4546917E1,1.1741369E2,1.13107475E2,1.4043533E2,1.2843645E2,1.1931514E2,2.9089554E1,3.4008816E1,1.1617778E1,4.2760367E2,2.6424945E2,1.7695888E2,7.0424866E1,4.201549E1,4.949818E1,1.0679233E1,3.3867687E1,6.9157104E1,4.8256584E1,7.5324356E1,3.778312E1,9.1503944E1,4.8931396E1,1.1089091E2,1.7545534E1,1.006114E2,1.8703745E1,1.4887666E1,1.4201888E1,2.720437E1,6.8044443E0,6.0653286E0,5.5524497E0,1.3546713E2,2.9213654E2,1.6552211E2,9.872732E1,1.3291873E2,4.4040142E1,6.158298E1,8.841886E0],"tree_param":{"num_deleted":"0","num_feature":"8","num_nodes":"57","size_leaf_vector":"1"}},{"base_weights":[1.6448424E-3,-7.356546E-1,5.269154E-1,-8.4148955E-1,-5.19219E-1,7.229534E-1,3.2519358E-1,-1.0032213E0,-5.2903044E-1,-2.5967097E-1,-1.037656E0,7.9497004E-1,3.8329977E-1,6.040377E-1,1.0672708E-1,-4.0963998E-1,-1.1280366E0,-3.91272E-1,-1.0839438E0,4.7963675E-2,-4.7420934E-1,-8.801734E-1,-6.0961455E-2,8.202036E-1,9.134081E-2,3.75108E-2,5.169215E-1,6.807492E-1,-6.6088796E-1,-5.45594E-1,4.5071554E-1,3.001457E-3,-3.491532E-2,-4.597645E-2,-5.8189686E-2,-3.163626E-2,-4.9084877E-3,-6.6185854E-2,-3.1480696E-2,1.9350227E-2,-9.4756335E-3,-6.805754E-3,-3.1636793E-2,-2.7686676E-2,-5.493197E-2,4.9155872E-2,3.6997616E-2,-1.2542257E-2,1.9102816E-2,2.230276E-2,-3.665586E-2,3.2446746E-2,9.769229E-3,9.4998395E-3,4.4068854E-2,-1.669834E-3,-5.6602634E-2,-1.6098466E-2,-6.739002E-2,8.010423E-3,3.830099E-2],"categories":[],"categories_nodes":[],"categories_segments":[],"categories_sizes":[],"default_left":[0,0,0,0,0,0,0,0,0,0,0,0,0,0,0,0,0,0,0,0,0,0,0,0,0,0,0,0,0,0,0,0,0,0,0,0,0,0,0,0,0,0,0,0,0,0,0,0,0,0,0,0,0,0,0,0,0,0,0,0,0],"id":21,"left_children":[1,3,5,7,9,11,13,15,17,19,21,23,25,27,29,31,33,35,37,39,41,43,-1,45,47,49,51,53,55,57,59,-1,-1,-1,-1,-1,-1,-1,-1,-1,-1,-1,-1,-1,-1,-1,-1,-1,-1,-1,-1,-1,-1,-1,-1,-1,-1,-1,-1,-1,-1],"loss_changes":[7.3611755E2,1.7539368E1,4.3558044E1,2.6054688E1,3.4935257E1,1.332193E1,3.3319077E1,2.51167E1,1.3401676E1,1.1711015E1,1.2087402E0,8.044342E0,4.5674314E0,2.3821068E1,6.9649445E1,8.518895E0,8.5583496E-1,1.0349245E1,2.8541908E0,5.9877453E0,5.423828E0,2.8320274E0,0E0,4.9332886E0,1.827152E0,9.519921E0,2.8526497E0,2.2137634E1,4.0448375E0,1.8622028E1,1.839595E1,0E0,0E0,0E0,0E0,0E0,0E0,0E0,0E0,0E0,0E0,0E0,0E0,0E0,0E0,0E0,0E0,0E0,0E0,0E0,0E0,0E0,0E0,0E0,0E0,0E0,0E0,0E0,0E0,0E0,0E0],"parents":[2147483647,0,0,1,1,2,2,3,3,4,4,5,5,6,6,7,7,8,8,9,9,10,10,11,11,12,12,13,13,14,14,15,15,16,16,17,17,18,18,19,19,20,20,21,21,23,23,24,24,25,25,26,26,27,27,28,28,29,29,30,30],"right_children":[2,4,6,8,10,12,14,16,18,20,22,24,26,28,30,32,34,36,38,40,42,44,-1,46,48,50,52,54,56,58,60,-1,-1,-1,-1,-1,-1,-1,-1,-1,-1,-1,-1,-1,-1,-1,-1,-1,-1,-1,-1,-1,-1,-1,-1,-1,-1,-1,-1,-1,-1],"split_conditions":[1E0,3.36844E1,8.6E-1,3.8054E2,7.31E0,3.01575E1,1.536E1,7.14E0,3.52E0,2.9474E2,2.9474E2,2.206E2,3.15204E1,2.478E2,2.7157E2,3.82E1,2.2E-1,1E0,4.16E1,4.342E2,3.139E2,9.95E0,-6.0961455E-2,4.1E0,2.402E2,1.278E2,5E-1,4.32E0,1.64E0,2.24E0,3.15204E1,3.001457E-3,-3.491532E-2,-4.597645E-2,-5.8189686E-2,-3.163626E-2,-4.9084877E-3,-6.6185854E-2,-3.1480696E-2,1.9350227E-2,-9.4756335E-3,-6.805754E-3,-3.1636793E-2,-2.7686676E-2,-5.493197E-2,4.9155872E-2,3.6997616E-2,-1.2542257E-2,1.9102816E-2,2.230276E-2,-3.665586E-2,3.2446746E-2,9.769229E-3,9.4998395E-3,4.4068854E-2,-1.669834E-3,-5.6602634E-2,-1.6098466E-2,-6.739002E-2,8.010423E-3,3.830099E-2],"split_indices":[2,3,6,1,6,3,1,1,6,1,1,5,3,5,1,5,6,0,5,5,5,6,0,5,5,5,6,1,6,6,3,0,0,0,0,0,0,0,0,0,0,0,0,0,0,0,0,0,0,0,0,0,0,0,0,0,0,0,0,0,0],"split_type":[0,0,0,0,0,0,0,0,0,0,0,0,0,0,0,0,0,0,0,0,0,0,0,0,0,0,0,0,0,0,0,0,0,0,0,0,0,0,0,0,0,0,0,0,0,0,0,0,0,0,0,0,0,0,0,0,0,0,0,0,0],"sum_hessian":[1.8987821E3,7.8970984E2,1.1090723E3,5.28116E2,2.6159378E2,5.608984E2,5.481738E2,3.463245E2,1.8179153E2,1.7545068E2,8.6143105E1,4.6142722E2,9.9471176E1,2.3983412E2,3.0833972E2,6.1054073E1,2.8527042E2,1.4714723E2,3.4644302E1,7.2212616E1,1.0323807E2,4.955828E1,3.6584824E1,4.4515524E2,1.6271969E1,2.8290247E1,7.118093E1,2.2663095E2,1.3203166E1,1.06155464E2,2.0218425E2,2.3410343E1,3.764373E1,4.6080105E1,2.3919032E2,7.985993E1,6.72873E1,2.1280058E1,1.3364243E1,2.9659584E1,4.2553032E1,3.374932E1,6.948875E1,2.1469757E1,2.8088522E1,1.4278941E2,3.0236584E2,7.3793225E0,8.892646E0,1.884867E1,9.441579E0,4.9520203E1,2.166073E1,6.647444E1,1.6015651E2,6.212524E0,6.990642E0,8.4207596E1,2.194787E1,1.0618003E2,9.600422E1],"tree_param":{"num_deleted":"0","num_feature":"8","num_nodes":"61","size_leaf_vector":"1"}},{"base_weights":[-5.1615112E-3,-7.007593E-1,4.8888963E-1,-8.726795E-1,-3.4834394E-1,-6.680794E-2,6.042904E-1,-7.2024566E-1,-9.770353E-1,-5.30666E-1,2.3460178E-1,-3.3439362E-1,7.5700426E-1,8.0535805E-1,3.966448E-1,-7.8519684E-1,2.7759964E-2,-5.8706995E-2,-8.1000596E-1,-1.3313645E-1,-9.0635777E-1,4.014878E-1,-5.187412E-1,-1.0843803E-1,-8.190563E-1,4.3311395E-2,-0E0,8.52048E-1,5.0049245E-1,2.44604E-1,9.267108E-1,-4.3839123E-2,-1.4580395E-3,-2.6809378E-2,-5.314551E-2,-1.015612E-3,-4.9971174E-2,-4.9352963E-2,-1.3316792E-2,-2.2795966E-2,2.8211242E-2,-8.558791E-3,-3.8367037E-2,-1.4070372E-2,3.330237E-2,-7.293433E-3,-4.7378298E-2,3.9805427E-2,4.8426908E-2,1.16475625E-2,4.720972E-2,3.6575057E-2,3.7811403E-4,5.168972E-2,1.0095269E-3],"categories":[],"categories_nodes":[],"categories_segments":[],"categories_sizes":[],"default_left":[0,0,0,0,0,0,0,0,0,0,0,0,0,0,0,0,0,0,0,0,0,0,0,0,0,0,0,0,0,0,0,0,0,0,0,0,0,0,0,0,0,0,0,0,0,0,0,0,0,0,0,0,0,0,0],"id":22,"left_children":[1,3,5,7,9,11,13,15,17,19,21,23,25,27,29,31,-1,-1,33,35,37,39,41,43,45,-1,-1,47,49,51,53,-1,-1,-1,-1,-1,-1,-1,-1,-1,-1,-1,-1,-1,-1,-1,-1,-1,-1,-1,-1,-1,-1,-1,-1],"loss_changes":[6.44646E2,4.6775482E1,7.042279E1,7.4424744E0,2.7500656E1,4.1948338E1,3.7484985E1,1.840583E1,8.961914E0,2.911259E1,7.9740896E0,1.555545E1,3.9283123E0,5.989929E0,3.5848618E1,1.4191444E1,0E0,0E0,1.10251465E1,9.333386E0,4.8124695E0,7.428322E0,7.724786E-1,1.3451642E1,3.6799793E0,0E0,0E0,1.642334E0,7.240307E0,4.037221E1,9.541771E0,0E0,0E0,0E0,0E0,0E0,0E0,0E0,0E0,0E0,0E0,0E0,0E0,0E0,0E0,0E0,0E0,0E0,0E0,0E0,0E0,0E0,0E0,0E0,0E0],"parents":[2147483647,0,0,1,1,2,2,3,3,4,4,5,5,6,6,7,7,8,8,9,9,10,10,11,11,12,12,13,13,14,14,15,15,18,18,19,19,20,20,21,21,22,22,23,23,24,24,27,27,28,28,29,29,30,30],"right_children":[2,4,6,8,10,12,14,16,18,20,22,24,26,28,30,32,-1,-1,34,36,38,40,42,44,46,-1,-1,48,50,52,54,-1,-1,-1,-1,-1,-1,-1,-1,-1,-1,-1,-1,-1,-1,-1,-1,-1,-1,-1,-1,-1,-1,-1,-1],"split_conditions":[1E0,6E0,7.28777E1,3E0,3.36844E1,3.15204E1,8.4E-1,9.17362E1,3.36844E1,2.48607E1,8.17E0,1.22E0,6.46E0,3.01575E1,9.17362E1,3.36844E1,2.7759964E-2,-5.8706995E-2,5.67E0,7E0,8.51376E1,1.1E0,1.107E1,6E0,1E0,4.3311395E-2,-0E0,6E0,6E0,7.43587E1,8.38E0,-4.3839123E-2,-1.4580395E-3,-2.6809378E-2,-5.314551E-2,-1.015612E-3,-4.9971174E-2,-4.9352963E-2,-1.3316792E-2,-2.2795966E-2,2.8211242E-2,-8.558791E-3,-3.8367037E-2,-1.4070372E-2,3.330237E-2,-7.293433E-3,-4.7378298E-2,3.9805427E-2,4.8426908E-2,1.16475625E-2,4.720972E-2,3.6575057E-2,3.7811403E-4,5.168972E-2,1.0095269E-3],"split_indices":[2,7,4,7,3,3,6,4,3,3,6,6,6,3,4,3,0,0,6,7,4,6,6,7,7,0,0,7,7,4,6,0,0,0,0,0,0,0,0,0,0,0,0,0,0,0,0,0,0,0,0,0,0,0,0],"split_type":[0,0,0,0,0,0,0,0,0,0,0,0,0,0,0,0,0,0,0,0,0,0,0,0,0,0,0,0,0,0,0,0,0,0,0,0,0,0,0,0,0,0,0,0,0,0,0,0,0,0,0,0,0,0,0],"sum_hessian":[1.8737614E3,7.7806757E2,1.0956937E3,5.2177026E2,2.562973E2,1.8833676E2,9.07357E2,2.156409E2,3.0612936E2,1.9543446E2,6.0862846E1,1.4270097E2,4.5635788E1,4.5927307E2,4.4808395E2,2.05632E2,1.0008895E1,1.3738205E2,1.687473E2,9.574483E1,9.968963E1,5.031623E1,1.05466175E1,9.8301636E1,4.4399338E1,3.9851833E1,5.7839546E0,3.9643628E2,6.2836784E1,3.494889E2,9.859508E1,1.8315303E2,2.2478973E1,8.271148E1,8.603583E1,8.571968E1,1.0025149E1,8.790683E1,1.1782797E1,7.6412067E0,4.2675026E1,5.269782E0,5.276835E0,8.0981445E1,1.732019E1,7.58406E0,3.681528E1,2.736973E2,1.2273899E2,4.029207E1,2.2544716E1,1.13613174E2,2.358757E2,8.7954636E1,1.0640442E1],"tree_param":{"num_deleted":"0","num_feature":"8","num_nodes":"55","size_leaf_vector":"1"}},{"base_weights":[1.2328135E-2,-6.8640417E-1,4.9972358E-1,-8.560096E-1,-3.401982E-1,-3.721404E-2,6.130817E-1,-6.855593E-1,-9.693863E-1,-8.9317286E-1,-9.207855E-2,-2.9125842E-1,7.8014636E-1,7.302478E-1,1.4006656E-1,-7.492562E-1,2.6522657E-2,-5.6013342E-2,-8.251424E-1,-4.9111646E-1,-5.1442977E-2,-2.8543398E-1,2.901276E-1,-6.7292936E-2,-8.008433E-1,8.84549E-1,-6.5826176E-4,8.5269755E-1,5.5012345E-1,-2.0620973E-1,7.239905E-1,-4.511207E-2,-2.5082517E-2,-2.6546253E-2,-5.2019667E-2,-8.732709E-3,-4.0175855E-2,-5.2053947E-2,-6.3667404E-3,2.4517437E-2,-3.4594264E-2,-1.1021903E-2,3.0606544E-2,-4.715378E-2,-1.1922482E-2,3.184178E-2,5.34784E-2,3.8732823E-2,5.1191326E-2,1.8561354E-2,4.691874E-2,4.575409E-3,-5.0591536E-2,4.6805933E-2,-1.7185653E-2],"categories":[],"categories_nodes":[],"categories_segments":[],"categories_sizes":[],"default_left":[0,0,0,0,0,0,0,0,0,0,0,0,0,0,0,0,0,0,0,0,0,0,0,0,0,0,0,0,0,0,0,0,0,0,0,0,0,0,0,0,0,0,0,0,0,0,0,0,0,0,0,0,0,0,0],"id":23,"left_children":[1,3,5,7,9,11,13,15,17,19,21,23,25,27,29,31,-1,-1,33,35,-1,37,39,41,43,45,-1,47,49,51,53,-1,-1,-1,-1,-1,-1,-1,-1,-1,-1,-1,-1,-1,-1,-1,-1,-1,-1,-1,-1,-1,-1,-1,-1],"loss_changes":[6.348157E2,4.456189E1,6.692273E1,9.087769E0,3.4626846E1,4.0092426E1,5.0075745E1,1.6590164E1,5.528534E0,3.6161995E0,1.3115431E1,1.6689396E1,3.888548E0,1.5414429E1,3.6892498E1,6.9403915E0,0E0,0E0,9.44162E0,1.9235177E0,0E0,1.38225E1,1.2031357E1,1.0882625E1,3.2401943E0,1.0072212E0,0E0,4.7742615E0,2.0160347E1,2.7666803E1,1.575518E1,0E0,0E0,0E0,0E0,0E0,0E0,0E0,0E0,0E0,0E0,0E0,0E0,0E0,0E0,0E0,0E0,0E0,0E0,0E0,0E0,0E0,0E0,0E0,0E0],"parents":[2147483647,0,0,1,1,2,2,3,3,4,4,5,5,6,6,7,7,8,8,9,9,10,10,11,11,12,12,13,13,14,14,15,15,18,18,19,19,21,21,22,22,23,23,24,24,25,25,27,27,28,28,29,29,30,30],"right_children":[2,4,6,8,10,12,14,16,18,20,22,24,26,28,30,32,-1,-1,34,36,-1,38,40,42,44,46,-1,48,50,52,54,-1,-1,-1,-1,-1,-1,-1,-1,-1,-1,-1,-1,-1,-1,-1,-1,-1,-1,-1,-1,-1,-1,-1,-1],"split_conditions":[1E0,6E0,7.28777E1,3E0,2.7157E2,3.8054E2,2.147E2,9.17362E1,2.648E2,4.7E-1,2.097E2,1.22E0,6.29E0,9.2E-1,1.4343E2,3.8054E2,2.6522657E-2,-5.6013342E-2,5.04E0,1.536E1,-5.1442977E-2,3.8054E2,8.17E0,6E0,6E0,2.72E0,-6.5826176E-4,6E0,9.17362E1,1.71E0,8.17E0,-4.511207E-2,-2.5082517E-2,-2.6546253E-2,-5.2019667E-2,-8.732709E-3,-4.0175855E-2,-5.2053947E-2,-6.3667404E-3,2.4517437E-2,-3.4594264E-2,-1.1021903E-2,3.0606544E-2,-4.715378E-2,-1.1922482E-2,3.184178E-2,5.34784E-2,3.8732823E-2,5.1191326E-2,1.8561354E-2,4.691874E-2,4.575409E-3,-5.0591536E-2,4.6805933E-2,-1.7185653E-2],"split_indices":[2,7,4,7,1,1,5,4,5,6,5,6,6,6,1,1,0,0,6,1,0,1,6,7,7,6,0,7,4,6,6,0,0,0,0,0,0,0,0,0,0,0,0,0,0,0,0,0,0,0,0,0,0,0,0],"split_type":[0,0,0,0,0,0,0,0,0,0,0,0,0,0,0,0,0,0,0,0,0,0,0,0,0,0,0,0,0,0,0,0,0,0,0,0,0,0,0,0,0,0,0,0,0,0,0,0,0,0,0,0,0,0,0],"sum_hessian":[1.8620883E3,7.649044E2,1.0971838E3,5.1221173E2,2.5269264E2,1.9122197E2,9.0596185E2,2.0777379E2,3.0443796E2,7.733541E1,1.7535722E2,1.4646506E2,4.4756905E1,7.2549994E2,1.8046194E2,1.9787483E2,9.898964E0,1.4514993E2,1.5928802E2,2.0865328E1,5.647008E1,1.16789215E2,5.8568016E1,1.0266951E2,4.379555E1,3.9561512E1,5.195392E0,4.293415E2,2.9615845E2,1.1358175E2,6.68802E1,1.2042289E2,7.7451935E1,6.896029E1,9.032774E1,1.12988E1,9.566526E0,1.9131502E1,9.7657715E1,4.9149498E1,9.418516E0,8.445558E1,1.8213924E1,3.4273018E1,9.5225315E0,1.904522E1,2.0516294E1,2.9906705E2,1.3027446E2,2.0425612E2,9.190232E1,8.349017E1,3.0091578E1,5.5975967E1,1.0904238E1],"tree_param":{"num_deleted":"0","num_feature":"8","num_nodes":"55","size_leaf_vector":"1"}},{"base_weights":[5.4920227E-3,-6.6694266E-1,4.7426134E-1,-8.3593804E-1,-3.3308178E-1,-7.838236E-2,5.919398E-1,-6.779838E-1,-9.402284E-1,-5.0981706E-1,2.4103935E-1,-3.4354043E-1,7.217929E-1,6.9741774E-1,1.8233773E-1,-7.3893523E-1,2.9679636E-2,-5.6584366E-2,-7.862477E-1,4.5171253E-2,-7.448631E-1,4.3428034E-1,-6.103565E-1,-4.9639255E-1,3.0162475E-1,8.118188E-1,1.1099713E-3,5.97687E-1,9.279097E-1,-1.4584185E-1,7.427737E-1,-4.1023105E-2,-7.012417E-3,-2.7015338E-2,-5.131345E-2,1.8880336E-2,-3.156782E-2,-1.4583997E-2,-4.8230868E-2,-5.124306E-3,2.7283102E-2,-1.5510327E-2,-3.9922535E-2,-1.538346E-2,-5.311323E-2,4.9763773E-2,-4.573213E-3,3.1736314E-2,4.6616435E-2,3.472545E-2,-5.393253E-2,4.9997848E-2,2.94753E-2,5.391734E-3,-4.370769E-2,4.6879962E-2,-3.028982E-3],"categories":[],"categories_nodes":[],"categories_segments":[],"categories_sizes":[],"default_left":[0,0,0,0,0,0,0,0,0,0,0,0,0,0,0,0,0,0,0,0,0,0,0,0,0,0,0,0,0,0,0,0,0,0,0,0,0,0,0,0,0,0,0,0,0,0,0,0,0,0,0,0,0,0,0,0,0],"id":24,"left_children":[1,3,5,7,9,11,13,15,17,19,21,23,25,27,29,31,-1,-1,33,35,37,39,41,43,45,47,-1,49,51,53,55,-1,-1,-1,-1,-1,-1,-1,-1,-1,-1,-1,-1,-1,-1,-1,-1,-1,-1,-1,-1,-1,-1,-1,-1,-1,-1],"loss_changes":[5.742327E2,4.1820984E1,6.991374E1,7.369995E0,2.5853767E1,4.0352604E1,3.8034637E1,1.6045837E1,7.6368713E0,2.543008E1,1.0147302E1,1.4259079E1,2.878807E0,1.5463928E1,3.3797653E1,9.184715E0,0E0,0E0,9.175018E0,1.3387451E1,1.3194023E1,3.0728893E0,2.879281E-1,1.1925726E1,7.77886E0,1.4294052E-1,0E0,8.091231E1,4.3800507E0,2.1610167E1,1.0756821E1,0E0,0E0,0E0,0E0,0E0,0E0,0E0,0E0,0E0,0E0,0E0,0E0,0E0,0E0,0E0,0E0,0E0,0E0,0E0,0E0,0E0,0E0,0E0,0E0,0E0,0E0],"parents":[2147483647,0,0,1,1,2,2,3,3,4,4,5,5,6,6,7,7,8,8,9,9,10,10,11,11,12,12,13,13,14,14,15,15,18,18,19,19,20,20,21,21,22,22,23,23,24,24,25,25,27,27,28,28,29,29,30,30],"right_children":[2,4,6,8,10,12,14,16,18,20,22,24,26,28,30,32,-1,-1,34,36,38,40,42,44,46,48,-1,50,52,54,56,-1,-1,-1,-1,-1,-1,-1,-1,-1,-1,-1,-1,-1,-1,-1,-1,-1,-1,-1,-1,-1,-1,-1,-1,-1,-1],"split_conditions":[1E0,6E0,7.28777E1,3E0,3.36844E1,3.15204E1,2.147E2,9.17362E1,3.36844E1,2.25726E1,8.17E0,6E0,6.46E0,6E0,3.36844E1,3.36844E1,2.9679636E-2,-5.6584366E-2,5.67E0,3.29E0,5.4E-1,1.1E0,5.05E2,3E0,1.72E1,2.72E0,1.1099713E-3,5E0,1.78E0,1.73E0,7.47E0,-4.1023105E-2,-7.012417E-3,-2.7015338E-2,-5.131345E-2,1.8880336E-2,-3.156782E-2,-1.4583997E-2,-4.8230868E-2,-5.124306E-3,2.7283102E-2,-1.5510327E-2,-3.9922535E-2,-1.538346E-2,-5.311323E-2,4.9763773E-2,-4.573213E-3,3.1736314E-2,4.6616435E-2,3.472545E-2,-5.393253E-2,4.9997848E-2,2.94753E-2,5.391734E-3,-4.370769E-2,4.6879962E-2,-3.028982E-3],"split_indices":[2,7,4,7,3,3,5,4,3,3,6,7,6,7,3,3,0,0,6,6,6,6,5,7,5,6,0,7,6,6,6,0,0,0,0,0,0,0,0,0,0,0,0,0,0,0,0,0,0,0,0,0,0,0,0,0,0],"split_type":[0,0,0,0,0,0,0,0,0,0,0,0,0,0,0,0,0,0,0,0,0,0,0,0,0,0,0,0,0,0,0,0,0,0,0,0,0,0,0,0,0,0,0,0,0,0,0,0,0,0,0,0,0,0,0,0,0],"sum_hessian":[1.8197653E3,7.4723883E2,1.0725265E3,4.9491626E2,2.5232259E2,1.8819693E2,8.843295E2,2.0018439E2,2.9473187E2,1.9315015E2,5.9172432E1,1.4187782E2,4.6319122E1,7.024839E2,1.8184563E2,1.9150249E2,8.681899E0,1.2825778E2,1.6647409E2,5.7578564E1,1.3557158E2,4.8721504E1,1.0450926E1,1.150143E2,2.6863518E1,4.076943E1,5.549694E0,4.931371E2,2.0934679E2,1.1504122E2,6.68044E1,1.6807695E2,2.3425537E1,8.403462E1,8.243946E1,3.9002823E1,1.857574E1,4.5180836E1,9.039075E1,8.232039E0,4.0489464E1,5.2515926E0,5.1993337E0,8.753951E1,2.7474785E1,9.254807E0,1.7608711E1,1.9382761E1,2.1386665E1,4.6681982E2,2.6317253E1,1.7074432E2,3.8602478E1,8.5852715E1,2.918851E1,5.373114E1,1.3073257E1],"tree_param":{"num_deleted":"0","num_feature":"8","num_nodes":"57","size_leaf_vector":"1"}},{"base_weights":[-8.8215275E-3,-6.460428E-1,4.3803173E-1,-8.0198556E-1,-3.462866E-1,3.0892488E-1,7.4547493E-1,-6.3409984E-1,-9.1928375E-1,-8.556729E-1,-1.1651489E-1,4.4848695E-1,-8.5396147E-1,9.923468E-1,6.5257806E-1,4.9163107E-2,-7.612709E-1,-5.7235923E-2,-7.3925143E-1,-3.2196182E-1,-1.0679551E0,-3.1074682E-1,2.87402E-1,5.8017313E-1,3.2182693E-2,-1.0804778E0,3.757029E-2,1.0473391E0,1.7306743E-2,5.2092224E-1,8.416882E-1,2.5158614E-2,-2.279694E-2,-4.379886E-2,-2.803605E-3,-2.0563291E-2,-4.9082335E-2,-5.4750284E-3,-4.2393617E-2,-5.68353E-2,-2.7218906E-2,-3.2541554E-2,1.2285061E-3,2.9548353E-2,-1.51555855E-2,3.196962E-2,-8.855016E-3,-5.4517724E-3,3.4069527E-2,-1.2285615E-3,-6.0651656E-2,5.622806E-2,3.066854E-2,3.398741E-2,-8.765608E-3,4.5826145E-2,2.0150172E-2],"categories":[],"categories_nodes":[],"categories_segments":[],"categories_sizes":[],"default_left":[0,0,0,0,0,0,0,0,0,0,0,0,0,0,0,0,0,0,0,0,0,0,0,0,0,0,0,0,0,0,0,0,0,0,0,0,0,0,0,0,0,0,0,0,0,0,0,0,0,0,0,0,0,0,0,0,0],"id":25,"left_children":[1,3,5,7,9,11,13,15,17,19,21,23,25,27,29,31,33,-1,35,37,39,41,43,45,47,49,-1,51,-1,53,55,-1,-1,-1,-1,-1,-1,-1,-1,-1,-1,-1,-1,-1,-1,-1,-1,-1,-1,-1,-1,-1,-1,-1,-1,-1,-1],"loss_changes":[5.084379E2,3.4015106E1,4.1320206E1,8.777405E0,2.9516476E1,1.20606224E2,6.2843323E0,1.7688507E1,1.0405869E1,8.424999E0,1.3918665E1,3.623111E1,2.9816357E1,2.425911E0,5.103012E0,7.701629E0,1.3670334E1,0E0,1.2161034E1,2.4862585E0,1.2175369E0,1.37243805E1,1.053017E1,2.2713974E1,1.4837799E1,9.683792E0,0E0,1.6595535E0,0E0,1.5361237E1,2.5078812E0,0E0,0E0,0E0,0E0,0E0,0E0,0E0,0E0,0E0,0E0,0E0,0E0,0E0,0E0,0E0,0E0,0E0,0E0,0E0,0E0,0E0,0E0,0E0,0E0,0E0,0E0],"parents":[2147483647,0,0,1,1,2,2,3,3,4,4,5,5,6,6,7,7,8,8,9,9,10,10,11,11,12,12,13,13,14,14,15,15,16,16,18,18,19,19,20,20,21,21,22,22,23,23,24,24,25,25,27,27,29,29,30,30],"right_children":[2,4,6,8,10,12,14,16,18,20,22,24,26,28,30,32,34,-1,36,38,40,42,44,46,48,50,-1,52,-1,54,56,-1,-1,-1,-1,-1,-1,-1,-1,-1,-1,-1,-1,-1,-1,-1,-1,-1,-1,-1,-1,-1,-1,-1,-1,-1,-1],"split_conditions":[1E0,6E0,6E0,3E0,2.7157E2,5E0,2.7E-1,7.14E0,3.36844E1,5E-1,2.097E2,3.01575E1,3.451E2,2.178E2,2.7157E2,1.02E0,3.36844E1,-5.7235923E-2,4.91E0,1.4343E2,2.68E0,8.4292E2,6.29E0,3E0,3.8054E2,9.1E0,3.757029E-2,7E0,1.7306743E-2,2.281E2,7E0,2.5158614E-2,-2.279694E-2,-4.379886E-2,-2.803605E-3,-2.0563291E-2,-4.9082335E-2,-5.4750284E-3,-4.2393617E-2,-5.68353E-2,-2.7218906E-2,-3.2541554E-2,1.2285061E-3,2.9548353E-2,-1.51555855E-2,3.196962E-2,-8.855016E-3,-5.4517724E-3,3.4069527E-2,-1.2285615E-3,-6.0651656E-2,5.622806E-2,3.066854E-2,3.398741E-2,-8.765608E-3,4.5826145E-2,2.0150172E-2],"split_indices":[2,7,7,7,1,7,6,1,3,6,5,3,5,5,1,6,3,0,6,1,6,1,6,7,1,5,0,7,0,5,7,0,0,0,0,0,0,0,0,0,0,0,0,0,0,0,0,0,0,0,0,0,0,0,0,0,0],"split_type":[0,0,0,0,0,0,0,0,0,0,0,0,0,0,0,0,0,0,0,0,0,0,0,0,0,0,0,0,0,0,0,0,0,0,0,0,0,0,0,0,0,0,0,0,0,0,0,0,0,0,0,0,0,0,0,0,0],"sum_hessian":[1.7835271E3,7.3507465E2,1.0484525E3,4.8220642E2,2.5286824E2,7.400205E2,3.08432E2,2.0132037E2,2.8088602E2,7.762354E1,1.7524469E2,6.613499E2,7.8670586E1,8.13875E1,2.2704451E2,3.1563496E1,1.6975688E2,1.2209103E2,1.58795E2,2.2939E1,5.4684547E1,1.1866188E2,5.6582813E1,5.019411E2,1.5940881E2,6.928391E1,9.386671E0,7.428997E1,7.0975256E0,1.3638123E2,9.0663284E1,1.6728731E1,1.48347645E1,1.456773E2,2.407957E1,6.880457E1,8.999043E1,1.7334455E1,5.6045446E0,4.7133423E1,7.5511246E0,5.859306E1,6.006882E1,3.7482685E1,1.9100126E1,4.658027E2,3.613839E1,1.314856E2,2.7923227E1,7.9439397E0,6.1339973E1,6.1520924E1,1.2769049E1,1.1118489E2,2.5196342E1,7.6325775E1,1.4337508E1],"tree_param":{"num_deleted":"0","num_feature":"8","num_nodes":"57","size_leaf_vector":"1"}},{"base_weights":[-8.478467E-3,-5.394135E-1,1.6766313E-1,-6.857913E-1,-3.001638E-1,4.1161457E-1,-7.374618E-2,-1.9926584E-1,-8.1131375E-1,-6.5256774E-2,-9.944301E-1,4.930187E-1,-1.4254478E-1,-2.1958974E-1,7.3009944E-1,-4.166537E-1,-5.4434445E-3,-6.892064E-1,-5.451265E-2,4.668004E-1,-2.9780036E-1,-6.0962033E-1,-5.6710195E-2,6.460953E-1,2.9246506E-1,-2.9601562E-1,3.178331E-1,-4.3925825E-1,1.4179322E-1,9.046862E-1,-2.9820955E-1,4.5530754E-4,-3.417533E-2,2.36176E-2,-2.1812275E-2,-1.9111035E-2,-4.4562373E-2,3.745116E-2,1.2001804E-2,-3.3006486E-2,2.0689871E-2,-1.1550521E-2,-4.7056448E-2,1.9274326E-2,4.1470654E-2,-3.4824103E-2,2.8070122E-2,-7.4887015E-3,-3.626519E-2,3.9917063E-2,-5.5538057E-3,-1.7230477E-2,-5.429354E-2,2.8994262E-2,-1.538819E-2,5.408914E-2,2.889894E-2,-3.636585E-2,1.4815559E-2],"categories":[],"categories_nodes":[],"categories_segments":[],"categories_sizes":[],"default_left":[0,0,0,0,0,0,0,0,0,0,0,0,0,0,0,0,0,0,0,0,0,0,0,0,0,0,0,0,0,0,0,0,0,0,0,0,0,0,0,0,0,0,0,0,0,0,0,0,0,0,0,0,0,0,0,0,0,0,0],"id":26,"left_children":[1,3,5,7,9,11,13,15,17,19,21,23,25,27,29,31,33,35,-1,37,39,41,-1,43,45,47,49,51,53,55,57,-1,-1,-1,-1,-1,-1,-1,-1,-1,-1,-1,-1,-1,-1,-1,-1,-1,-1,-1,-1,-1,-1,-1,-1,-1,-1,-1,-1],"loss_changes":[1.6571474E2,1.5155853E1,7.839962E1,1.6400253E1,2.7490255E1,2.9966469E1,7.856354E1,2.3760283E0,6.441513E0,1.5947613E1,1.4309349E0,1.7447952E1,6.1259556E0,4.512732E1,1.880309E1,3.1209354E0,6.712189E0,9.051605E0,0E0,2.2274675E0,2.3437536E1,1.3887091E0,0E0,1.5153915E1,6.743101E1,3.8676643E0,4.6236877E0,2.1102036E1,4.2560368E1,4.3172455E0,4.239148E0,0E0,0E0,0E0,0E0,0E0,0E0,0E0,0E0,0E0,0E0,0E0,0E0,0E0,0E0,0E0,0E0,0E0,0E0,0E0,0E0,0E0,0E0,0E0,0E0,0E0,0E0,0E0,0E0],"parents":[2147483647,0,0,1,1,2,2,3,3,4,4,5,5,6,6,7,7,8,8,9,9,10,10,11,11,12,12,13,13,14,14,15,15,16,16,17,17,19,19,20,20,21,21,23,23,24,24,25,25,26,26,27,27,28,28,29,29,30,30],"right_children":[2,4,6,8,10,12,14,16,18,20,22,24,26,28,30,32,34,36,-1,38,40,42,-1,44,46,48,50,52,54,56,58,-1,-1,-1,-1,-1,-1,-1,-1,-1,-1,-1,-1,-1,-1,-1,-1,-1,-1,-1,-1,-1,-1,-1,-1,-1,-1,-1,-1],"split_conditions":[7.28777E1,3.15204E1,1E0,1.63E1,6.78E0,2.163E2,9.17362E1,1.8E-1,1.58E0,1E0,7.93E0,3E0,3.36844E1,6E0,8.57E0,1.6E0,3E0,9.32E1,-5.451265E-2,3.256E2,6E0,3.683E2,-5.6710195E-2,2.48607E1,6E0,2.517E2,4.189E2,7.76E0,7.43587E1,2E0,1.262E2,4.5530754E-4,-3.417533E-2,2.36176E-2,-2.1812275E-2,-1.9111035E-2,-4.4562373E-2,3.745116E-2,1.2001804E-2,-3.3006486E-2,2.0689871E-2,-1.1550521E-2,-4.7056448E-2,1.9274326E-2,4.1470654E-2,-3.4824103E-2,2.8070122E-2,-7.4887015E-3,-3.626519E-2,3.9917063E-2,-5.5538057E-3,-1.7230477E-2,-5.429354E-2,2.8994262E-2,-1.538819E-2,5.408914E-2,2.889894E-2,-3.636585E-2,1.4815559E-2],"split_indices":[4,3,6,5,6,5,4,6,6,7,6,7,3,7,6,5,7,5,0,5,7,5,0,3,7,5,5,6,4,7,5,0,0,0,0,0,0,0,0,0,0,0,0,0,0,0,0,0,0,0,0,0,0,0,0,0,0,0,0],"split_type":[0,0,0,0,0,0,0,0,0,0,0,0,0,0,0,0,0,0,0,0,0,0,0,0,0,0,0,0,0,0,0,0,0,0,0,0,0,0,0,0,0,0,0,0,0,0,0,0,0,0,0,0,0,0,0,0,0,0,0],"sum_hessian":[1.7696112E3,4.4045984E2,1.3291514E3,2.7185135E2,1.6860849E2,6.6095026E2,6.682012E2,5.644694E1,2.154044E2,1.2690713E2,4.1701366E1,5.765481E2,8.440216E1,5.6630615E2,1.01895004E2,2.5820976E1,3.0625967E1,1.5248326E2,6.2921143E1,3.8160027E1,8.87471E1,1.2730387E1,2.8970978E1,3.2543393E2,2.5111417E2,6.3731094E1,2.0671068E1,3.5225024E2,2.140559E2,8.729199E1,1.460301E1,1.0176174E1,1.5644802E1,1.4365195E1,1.6260773E1,6.1867344E1,9.061591E1,1.5778541E1,2.2381485E1,5.8946E1,2.9801104E1,6.8759675E0,5.8544197E0,1.3589326E2,1.8954065E2,5.3269157E1,1.9784502E2,4.8716972E1,1.501412E1,9.452844E0,1.12182255E1,3.087449E2,4.350533E1,1.0837617E2,1.0567973E2,5.4909977E1,3.2382015E1,8.449352E0,6.1536574E0],"tree_param":{"num_deleted":"0","num_feature":"8","num_nodes":"59","size_leaf_vector":"1"}},{"base_weights":[-1.1111744E-2,-5.051174E-1,1.5541533E-1,-6.561033E-1,-2.5865617E-1,6.3211486E-2,7.8007543E-1,-1.4563502E-1,-7.893922E-1,-7.950792E-2,-5.2398223E-2,2.73629E-1,-2.8596833E-1,8.829502E-1,-2.3222724E-1,-7.02285E-2,-3.386516E-2,-6.0271156E-1,-9.8067737E-1,-2.1885227E-2,-6.295209E-1,3.6873814E-1,-2.030272E-1,5.105986E-4,-6.9548887E-1,5.1528092E-2,7.923594E-1,8.547905E-3,-3.4903314E-2,-1.2842557E-2,4.555543E-3,-1.640395E-2,-4.089978E-2,-4.416178E-2,-5.8296498E-2,2.275281E-2,-3.50428E-3,-1.3681936E-2,-4.6653815E-2,2.6787931E-2,1.2289402E-2,-1.6776307E-2,1.3685043E-2,2.0949593E-2,-2.7125254E-2,-2.0428464E-2,-5.9292972E-2,2.0243518E-2,4.4970505E-2],"categories":[],"categories_nodes":[],"categories_segments":[],"categories_sizes":[],"default_left":[0,0,0,0,0,0,0,0,0,0,0,0,0,0,0,0,0,0,0,0,0,0,0,0,0,0,0,0,0,0,0,0,0,0,0,0,0,0,0,0,0,0,0,0,0,0,0,0,0],"id":27,"left_children":[1,3,5,7,9,11,13,15,17,19,-1,21,23,25,27,29,-1,31,33,35,37,39,41,43,45,-1,47,-1,-1,-1,-1,-1,-1,-1,-1,-1,-1,-1,-1,-1,-1,-1,-1,-1,-1,-1,-1,-1,-1],"loss_changes":[1.4444536E2,1.6212875E1,7.547629E1,1.840886E1,2.3854023E1,8.421458E1,1.7830399E1,2.2043777E0,6.984833E0,4.3519454E0,0E0,3.251635E1,5.0622784E1,1.0519562E0,3.2254953E0,1.608888E0,0E0,6.266884E0,6.627884E-1,2.9301522E0,1.034575E0,1.2045441E1,7.6428747E0,5.802406E1,2.4330727E1,0E0,3.6445808E0,0E0,0E0,0E0,0E0,0E0,0E0,0E0,0E0,0E0,0E0,0E0,0E0,0E0,0E0,0E0,0E0,0E0,0E0,0E0,0E0,0E0,0E0],"parents":[2147483647,0,0,1,1,2,2,3,3,4,4,5,5,6,6,7,7,8,8,9,9,11,11,12,12,13,13,14,14,15,15,17,17,18,18,19,19,20,20,21,21,22,22,23,23,24,24,26,26],"right_children":[2,4,6,8,10,12,14,16,18,20,-1,22,24,26,28,30,-1,32,34,36,38,40,42,44,46,-1,48,-1,-1,-1,-1,-1,-1,-1,-1,-1,-1,-1,-1,-1,-1,-1,-1,-1,-1,-1,-1,-1,-1],"split_conditions":[7.28777E1,3.8054E2,